59 100
结界 0.0042441171 0.0033551033 0.00079878094 -0.0028533731 -0.0038858373 -0.0049327551 -0.0042509711 0.0023883006 -0.0034283944 -0.0012147041 -0.0016920824 -0.00016474399 -0.0046888324 0.0021600048 0.0034658096 0.0010839415 0.0048564975 0.002338229 0.0019189627 -0.0038434193 0.00015939082 -0.0044061141 -0.0041474048 -0.0042134048 -0.00037990403 -0.0041138451 0.0010436482 -0.00083741307 0.0027701955 0.0049409703 -0.0046581221 -0.0030722392 -0.00029002599 3.1395984e-06 0.0036131863 0.0020199006 0.0018300522 -0.0024460282 0.0018451703 0.0040920274 0.00097375759 0.0039106319 -0.004975921 -0.0022559485 0.0046780999 -0.0037379744 -0.00053581491 -0.0037261054 0.0031376586 -0.0027720029 0.0023679149 0.0021456855 0.0037560258 -0.003472385 0.0049109445 0.0031080705 -0.0036682403 -0.0015124896 0.00041849457 0.00055994472 -0.0014397127 0.0017412155 -0.0015713174 -0.0040040053 -0.0025047376 0.0019228191 0.0048831045 0.0011795978 -0.0016885636 -0.0047311359 0.0046967608 0.0030455173 0.0026279883 0.0022446113 -0.004290205 -0.0028298467 -0.0033448432 0.00037573677 0.0047207936 0.0011953762 -0.0002876792 -0.0031600464 0.00050880638 0.0033175224 0.0010208344 0.00069402484 0.0041033034 -0.003867619 0.0015743292 -0.0019097124 -0.0018962866 -0.00045772135 0.0037731407 0.00041620762 0.0029892263 -0.0013735897 -0.00041153477 -0.0020767923 -0.0033210926 -0.00087292044
天津 -0.0019395982 0.0046068761 -0.0020173662 0.0015636622 -0.00094352342 0.0034008117 0.0015786012 -0.0038579616 -0.00303058 -0.0041013448 -0.0033673493 -0.0008211906 -0.0018026645 0.0049765231 0.0024848641 0.00079190201 -0.0031829227 0.0011285942 -0.00086144329 -0.00023307433 0.0012554678 -0.0017928105 0.00055539858 0.0045292689 0.00036984112 -0.00020062392 -0.00040236677 0.0043004169 -0.00042978156 0.0032209256 0.0017864096 0.0042984709 -0.00056230609 -0.0031717713 0.0019478032 0.0028643869 0.004592625 -0.0042195404 -0.0041151205 -0.0018165929 -0.0046871807 -0.0019149863 0.0048076934 0.0035713676 -0.0035300024 0.0042804764 -0.0022830034 0.0015683571 -0.00050961995 -0.0011596183 0.0011453847 0.0039972616 0.0016779831 -0.003560327 0.0030715209 0.0011353028 -0.00040774245 -0.00030789393 -0.00082890026 -0.0038406411 -0.0038286122 -0.0001753465 -2.6100171e-05 -0.00044505886 0.0027122926 0.0015758254 0.0028053776 0.0047430401 0.00092378538 0.002426625 0.0034584843 -0.0028791376 0.00018889966 -0.00282734 -0.0042028739 -0.0022955458 0.0042768046 -0.00062952802 -0.0029513978 -0.0021843463 -0.0020033722 -0.0033596905 0.0019479027 0.0030804409 0.0022686883 -0.00064043159 0.0041577951 -0.00011105488 -0.0030071489 -0.004864444 -0.0035995464 -0.00057605497 0.0045024068 0.00072171987 0.0015427178 -0.0031875123 -0.0028472249 -0.00075510464 0.0012196351 -0.0023273013
警告 -0.0046789716 -0.0029208255 -0.00024764184 0.0037831482 0.0039895573 0.00047925368 0.0031072837 -0.00057599822 -0.004046672 -0.00033719355 0.0044357558 -0.0038832084 0.0039469413 0.0032928062 -0.00333281 -0.0023941186 0.0048520234 0.0021649685 0.0020854312 -0.0020770556 -0.0041940799 0.001901416 -0.0050056977 0.0029250635 -0.0044396431 0.0032319385 -0.0040187291 -0.0010575501 -0.0018074247 0.0045599905 0.0014872964 -0.0024324639 -0.00034600674 0.00015872561 0.0014527611 -0.0012688192 0.0025090775 -0.0038267374 0.0012527707 -0.0039625354 -0.0021868353 0.0031644665 0.00091707584 0.0029324093 0.00031815402 -0.0046630846 -0.0025589245 0.0021228206 0.00080756255 0.0044779945 -0.0023709915 -0.001744955 0.0031713794 -0.0047161747 0.000216154 0.0039260192 -0.0049635563 -0.00011206686 0.001957607 0.0045319241 0.0039490541 -0.0047355811 -0.0043950779 -0.0040364442 -0.0012711628 0.0025898272 -0.0035049713 -0.0050108079 0.0013748207 0.0018181956 -0.00056758174 -8.3995641e-05 0.0030178826 -0.00017584988 -0.004722266 -0.00081841054 0.001312407 0.0010904915 0.0010813997 0.002730255 -0.0046270466 0.001219215 -0.0033389274 -0.001155733 0.00026421421 0.0013076693 0.0015142583 0.0026200756 -0.0021067385 0.00086361659 0.0020638318 -0.0040296866 -0.0020170077 -0.0041545532 0.0045067426 -0.002055126 0.0036060689 0.0041349516 -0.00028481142 -0.0042168135
第一次 0.0020774393 -0.00020446243 0.0016531269 -0.0016896827 0.0021329366 0.0032105427 0.0041006948 -0.0035708342 0.0018747493 0.00048934767 -0.0016374004 0.0037351218 -0.002814749 -6.3545708e-06 0.0046019158 0.0047233179 0.00034277645 -0.0037063425 -0.00070988474 0.0025511328 0.0013490745 -0.0014153693 0.0046112458 0.00095954438 0.00049214571 -0.0021710631 -0.0031836526 -0.0036392424 -0.0039435127 0.003728959 -0.0003375852 0.0039021594 -0.0011824263 0.00040739778 -0.0025990244 0.0018669309 -0.003821153 -0.004658178 -0.0016646519 0.00013672997 0.00018017407 0.0012884149 0.0044732601 -0.0012771732 -0.00081457332 0.00035979826 -0.0027729273 0.0038359812 0.00012889723 -0.0045577395 0.0025583699 0.0027951403 0.0040727155 0.0011125292 0.00085839489 0.0020441031 0.00028963634 -0.0037321751 -0.0031482007 0.00094921479 -0.00098132598 0.0019800083 -0.00021793399 -0.0018573455 -0.0027767003 0.0046799239 -0.0039506895 0.0022250505 0.0039106268 0.0027538517 0.0049000098 0.0036836946 -0.004596978 -0.00021264933 -0.00013362497 -0.0010476811 0.0010398322 0.001102581 -0.00046378432 -0.002474257 -0.0046750829 0.003560557 -0.0017587442 -0.0032291946 0.0010256846 -0.0016648789 -0.00041103488 0.0034088779 0.00095038634 -0.0047949287 0.00076350954 0.0017247198 0.001633332 -0.0033984156 0.0010141371 0.0043178489 0.001055847 -0.00030403561 -0.0039320081 0.00066753454
坐 -0.0030236288 -0.0040146112 0.003010018 -0.0013058275 0.0022226362 -0.0019810968 -0.0016936054 0.0028119409 -0.0035610455 0.0047471425 -0.00081163726 -0.00045860212 -0.0032750319 0.0014991582 0.0015645408 -0.0020802752 0.0006310594 -0.0021659196 -0.00024306326 0.00088442059 -0.0018642778 0.0040799216 0.0048386501 0.00039030024 0.00072447985 0.0037200537 -0.0034198812 -0.0041265003 -0.00054191845 -0.0037156525 0.00014289191 -0.0014862031 -0.00012726452 0.0024336497 -0.0044820397 -0.004978287 0.0029142087 0.0011449136 0.0010366954 -0.0011960466 0.0035410908 0.0047186543 0.00028715003 -0.004953783 -0.00032590667 -0.00023684809 -4.0868363e-05 -0.0042298376 -0.0039355992 -0.00068993936 -0.0020692653 0.0028222001 0.003002736 0.0024972998 -0.0016994139 0.0049600904 0.00032139689 -0.00026978308 -0.0026841811 -0.0042421534 -0.0036761425 0.0019617304 0.0021929506 0.0017410616 -0.0003064379 -0.0036331401 -0.0026993833 0.0011453036 0.0036275547 0.0012011479 0.0037692026 -0.0023655393 0.0040665506 0.0036934279 -0.0030651914 -0.0011079623 0.0003547688 0.0020467469 -0.00032614209 0.0021072144 0.0045216074 0.0039531537 -0.0046068574 -0.00051121542 -0.0038320175 0.0008205534 0.0042277412 0.0036128825 0.0040148147 -0.003663196 -0.0013781408 -0.00077984959 -0.00435733 0.0046417508 -0.0023189003 -0.0010655602 0.0038507145 -0.0021238835 0.00095564395 0.0030144847
高铁 0.0019772667 -0.0021782098 0.00047117381 0.0018908032 -0.0039083012 -0.00078292907 -0.0040525254 0.0047127986 0.0034461801 0.0012116674 0.0042287167 0.0034072092 0.0011684353 0.0019951912 -0.0039466047 1.3446961e-05 0.0017019197 0.0010265814 -0.0026385353 0.0022133479 -0.0046987841 0.0029009271 0.0039586243 -0.0022432713 0.0038072912 -0.0030178381 -0.0030056688 0.00069744204 0.00468955 -0.0016045321 -0.0036060382 0.0031662676 -0.0021236222 -0.0021832192 -0.0042344714 0.0047613359 0.0023824067 -0.00097786437 -0.002570003 0.0031759264 -0.00033118381 -0.0023929817 -0.0038791145 0.0022898691 -0.004153755 -0.003277075 0.00033976609 -0.0033469028 -0.00074292248 0.0049471124 0.0029107353 0.004121854 -0.00074445846 -0.0027569302 0.0021647485 -0.002678416 0.0043614116 0.0038319239 -0.0039213146 0.0019516948 -0.0017267435 0.0017994589 0.0013338488 0.0023641984 0.0016932088 0.0021905317 0.0027210964 0.0033530402 -0.0024678325 -0.0021964333 -0.0038223609 0.0048235715 -0.0018188425 -6.8481873e-05 -0.0013916522 0.0033513261 0.0047230711 0.0035551225 0.0034702178 0.0013293579 -0.0017726563 -0.0014852276 0.001194971 0.0019961763 0.0034975859 0.0048143645 0.0020405515 -0.0007339656 -0.00086169032 -0.0035217581 0.0034287178 -0.002282351 -2.1570277e-05 -0.0020702963 -0.0033960086 -0.0030620678 0.0044412166 -0.0035970767 0.0020631445 0.00065884029
北京 -0.00090377778 0.0034581018 0.0048737004 5.759238e-05 -0.0044297595 0.0047739772 -0.0017472834 0.0011011347 0.0019001644 0.00062094221 -0.002031378 -0.0031968376 -0.0045562414 0.0026652159 -0.0013665954 0.0014477625 -0.003272099 -0.0021257028 0.0030042282 0.0015727988 0.0048000137 0.0034025426 0.0021818667 0.0038712726 -0.0014702871 -0.0024600849 -0.0014499954 0.0003552608 0.0017892605 0.0016168295 0.0025022053 -0.0024767222 0.0011592488 0.00051713252 -0.0023907113 0.0012813829 0.0027626252 -0.002612988 0.0044422173 -0.00063348038 0.00080464303 0.0047182194 0.0023861644 -0.0012469036 0.0047524665 -0.0034611428 0.00050179142 -0.00031411566 0.0016789527 -0.0046642716 -0.004853324 -0.0047819535 0.0042995843 -0.0018728593 0.0016139389 0.0027063014 0.0036932677 -0.00266795 -0.003613638 0.0020354046 0.0033907245 0.0024871491 -0.00068665628 0.0046102693 0.004491752 -0.0015786458 -0.0013083461 -0.002101568 -0.0038489304 -0.0038179781 0.0043946858 -0.004857495 0.0038364623 -0.0041247075 -0.0041830824 -0.0047696005 -0.0037079847 -0.0028652837 -0.0011561561 -0.00036026177 -0.00034295383 -0.0024287344 -0.00066494878 0.0022202849 0.0028140903 -0.0042557069 0.0012672702 0.001839672 0.004626187 -0.004175798 -0.003001825 0.0018080698 -0.0044127228 0.0046881251 -0.0039663203 -0.0033430192 -0.0013895176 -0.0021743213 -0.0039947224 -0.004704148
城际 0.003845538 -0.0035947987 -0.0039668093 0.0010410047 0.0027191313 -0.0017583881 0.00014271567 0.00042327499 0.0039827032 -0.002522249 0.0019396063 -0.0014111488 -0.0020817351 0.0019004156 0.00069469458 0.0023491122 -0.0019355678 -0.0016739974 0.0015245688 -0.0016894452 0.0022689782 -0.0011241263 8.3495557e-05 0.00018136704 -0.00029947489 0.004177073 0.0028796899 -0.0015100798 0.001460435 0.0006827304 -0.0034087684 0.0043078936 -0.00059855613 -0.0040301764 0.0042454056 -0.0002970986 -0.0029646936 0.0042214091 0.004293716 -0.0010356295 0.003486379 -0.0045617507 0.001586308 0.0037195636 0.002503722 0.00097189838 0.0014580162 -0.0020124926 0.0028866834 0.0012460818 0.0034172318 0.0049463119 -0.0040568924 2.6932874e-05 -0.00034469107 0.0035907389 -0.0014861147 -0.00016248923 -0.001618857 -0.0048581469 -0.0033863019 -0.00065433799 -0.0015494173 0.0013275675 -0.0032217326 -0.0010394456 0.00083293341 -0.0021877135 0.0049832412 0.0039119804 0.0042154118 0.0032563554 -0.0018954659 -0.0018990146 -0.001232744 0.0037906286 0.0025026479 -5.7025165e-05 -9.9088807e-05 0.0035308832 0.0013702958 -0.0035647019 0.0029207238 -0.0024231486 -0.0025114417 0.0023232582 0.0021871743 0.00038405063 -0.0028946986 0.001477208 0.0045190793 0.0022011134 0.0010274078 6.7476452e-05 -0.00091658166 -0.00058345328 0.0014915194 0.0025739507 -0.0049088644 -0.0028834031
站 0.0026775701 -0.0033588221 0.00085491448 2.4039578e-05 -0.0015775078 0.0043744119 0.00029662915 -0.0030926201 -0.0013020851 0.0011698726 -0.0016623592 -0.00023241171 -0.0033841392 0.0017332888 -0.0047917785 0.0032431341 0.0036020675 0.0026655081 0.0049228468 0.002234855 0.0029204111 -0.0022175252 -0.00092885847 -0.0028013492 2.7044993e-05 0.00021839447 -0.0041105491 -0.0049864007 -0.0041998532 -0.0011054307 0.004809197 0.004088168 -0.0008453186 -0.0028555323 0.0018611582 -0.0031886965 -0.001481027 0.0038177585 0.0048104818 -0.0045778872 -7.4154494e-05 0.0041813632 0.0032899284 -0.001018071 0.0024199458 -0.0039095762 0.0035544478 0.0023735105 0.0042677438 0.0045926096 -0.0002479424 -0.0027993601 -0.0041835834 -0.00044080269 0.0016228164 -0.0011310116 -0.0037103742 0.0024946912 -0.0046125883 0.0014628039 0.0035745793 0.00022380339 -0.00064642023 0.0045590927 -0.00041596225 0.0049997363 -0.0027935128 -0.0041414476 0.00069229584 -0.0039703413 0.00084497745 -0.0046916213 -0.0028820147 0.0028107853 0.0036709616 0.003889095 -0.0014713884 -0.0028072991 0.00076864409 0.0049515688 -0.0025784012 0.0045607169 -0.0012937722 0.0021890712 0.0048954012 -0.00041005522 -9.6483775e-05 -0.00079397607 0.0046209455 0.00030536126 0.0033786092 -0.0021154087 -0.0039581428 -0.00086484215 0.00062885688 -0.0014555408 -0.0027798139 0.0048247203 0.00039488755 0.003612618
正 -0.0014558304 0.0017662537 0.0018613823 0.0017538361 -0.0010188273 0.004512528 0.0022764497 -0.00082425494 0.0016810577 0.0045738793 0.0049716649 -0.0047600023 -0.0015964006 0.0047231684 0.0037678035 -0.0019191147 0.0037152313 -0.0015170069 -0.00015479949 0.0026012419 0.0024137953 -0.0044352715 0.0001855896 0.00068912702 0.0043961816 0.0035726421 -0.0021260895 0.00070067745 0.0040907054 0.0021409106 0.0020389785 -0.0015284686 0.0026766907 0.00097751862 0.0033884328 -0.00033863992 -0.0012052502 0.0017378086 0.001781631 0.00092750194 -0.0013224225 -0.0044565736 -0.00493433 0.0021354475 -0.0034022715 0.0012344331 -0.0015065188 -0.0023332238 -0.0012566904 0.00034967481 0.0037631248 0.0039504222 0.00014729858 0.004418009 -0.0043065376 -0.0031430041 -0.0047114776 -0.0039691534 -0.0028180636 -0.0009363197 0.004673738 0.0046552964 0.0030940308 -0.002817906 0.00016935587 -0.0028256916 -0.0010203504 -0.002124317 -0.0021666656 0.0046983687 0.00072930899 -0.0035565167 -0.0021906747 0.0024509821 0.0028734598 -0.0045937048 0.0018316063 -0.0018570984 -0.0048460979 -0.0018601347 0.00079405785 0.002358163 0.0046022786 0.0021201628 -0.0025897613 0.0029668033 -0.0006052372 0.003196802 0.00085074792 -0.0018754615 -0.0045472072 -0.0041863737 0.0025967096 0.0045120688 0.0042640893 0.0038518184 0.0027729131 0.00069503055 0.0014181191 -0.0039851069
车厢 -0.0049281032 -0.0015111223 0.00026249341 -0.0045407712 -0.0030960967 -0.0021286986 0.0020547092 0.0040969746 0.0033470697 0.0019813962 0.0035079471 -0.0012311401 0.0027038718 -0.00013315228 -0.0047766482 -0.0035132209 -0.0038250086 0.0042621801 0.0013426695 -0.00082421821 -0.0010807801 0.00060831377 -0.0012836541 0.0019509859 0.0028628984 -0.0010490245 0.0024126188 -0.00076723966 0.0038361968 -0.0044300179 0.0028243966 -0.0044457801 0.0020728563 0.0032942684 -0.0036285408 0.002681738 -0.0044771358 0.0011321038 -0.00025089111 0.0046950681 -0.0029731109 -0.0018688868 0.0036707281 0.0017021919 -0.0019302366 -0.0032358824 0.0010700254 -0.0045985333 0.0021366877 0.0019131182 -0.0025203745 0.0015987856 0.00012368237 -0.0027334071 0.0011803592 -0.0019815033 -0.0016807538 -0.00044547464 0.00050164125 0.0027792791 0.003412195 0.0021281773 0.0026562836 0.0021411523 -0.0039609447 -0.0043234583 0.0045361249 -0.0045625926 -0.003084559 -0.0046745529 0.0035574671 0.00061317428 0.0021497596 0.0017811949 0.0019351728 0.0047921524 -0.0035489942 -0.0019755592 -0.00027682149 -0.00066958508 0.0032953604 0.0034287954 -0.0012396234 -0.0021124792 0.0033308449 0.0034791497 -0.0039887317 0.0017751994 -0.0049832324 0.0035179122 0.003283713 -0.00092876574 -0.0037769296 -0.0015610866 -0.0021394582 0.0037534256 0.0023871355 0.0046257991 0.0031813451 -0.00065277738
身后 0.0029753717 0.00077362207 -0.004343708 -0.0036526194 -0.0038845974 0.00040232556 0.0023136346 0.0015138539 0.0027529306 0.0024898597 0.0041316166 -0.001472809 -0.0014701617 6.8099712e-06 0.0042905663 -0.0030736558 -0.0037207182 -0.0015566227 -0.0012693537 -1.4458677e-05 0.0018401577 -0.0047180215 -0.004027057 0.0016865493 0.0028723287 0.0011043345 -0.001122821 -0.0035317959 0.0016629149 0.0031289253 -0.004793711 -0.0034866396 -0.0034422956 0.0043088575 0.00077260064 0.0037574719 0.0020954532 -0.0043908604 0.0036381392 0.0049686427 0.0048796283 -0.0029169186 -0.00059234072 0.0011905744 0.0016547719 -0.0042351233 0.0026044177 -0.0033246446 -0.0049259714 0.0014462501 -0.0014992116 0.00018632216 -0.00085580256 0.0039508492 -0.0019201561 -0.0042015146 0.00053661939 -0.0044564037 0.0037829049 -0.003149841 -0.0027363708 -0.0025275629 0.0039432212 0.0010465919 0.00025462118 -0.0024381503 0.00040815596 -0.00053534913 -0.00024401474 -0.0033588046 0.0014532257 -0.0031633053 -0.0034871455 -0.0032317122 -0.0046732519 0.0047850334 0.00486079 -0.0044310526 -0.0019103533 -0.0027136677 -0.00024807901 -0.0041244766 -0.0031716095 0.00080268236 -0.0035409892 0.0044541028 -0.00030399719 0.0045488952 0.0030583916 -0.000595811 0.004662578 -0.00065810949 -0.0012389367 0.0036067166 -0.0042886478 0.00257636 -0.0025732052 -0.0039809672 0.0014123201 0.0039562644
传来 0.00055733341 -0.00050299894 -0.0035112628 -0.002876359 -0.0030309719 0.0019489302 -0.0048481701 0.0043443656 0.0006199585 0.004492797 0.0047078589 -0.0025038857 0.0032332852 0.00099927117 -0.0029180413 -0.0039385711 0.00046374972 -0.0020164754 0.00073720637 -0.0029602333 -0.0016767151 0.00022072818 0.001784601 -0.00052101014 -0.0021196087 -0.0045162905 -0.0038806261 -0.0023192281 -0.0044955881 -0.0039780675 0.0021107811 8.4427047e-05 -0.0047283145 -0.0021031438 0.0010599318 0.00069280533 -8.7313811e-06 -0.0027524845 -0.004140242 0.0047331951 0.0047132457 0.00026744921 0.0024037715 -0.002845644 -0.0012191002 -0.0047261575 -0.0012086952 -0.0024271861 -0.0037745454 0.003500592 0.00056807109 0.0040197009 0.0034091498 -0.00091183849 -0.0018831256 -0.0038897039 -8.6078791e-05 0.00074182235 0.0023408078 -0.00023092485 0.0028581508 0.0016994579 -0.0018296951 0.0012621796 0.002986317 -0.0041523506 -0.0038431247 0.0049065123 0.0044480753 -0.0013691246 -0.00061055017 0.00032705409 0.00024770747 -2.4748158e-06 -0.00069266849 0.0030164411 -0.00039064413 -0.0030526672 0.0032067425 0.0034000345 -0.0028231926 -0.00027435541 0.0022157195 -0.0043525239 -0.00042638832 -0.002787444 -0.0036778015 -0.0039967946 -0.001428723 0.0032315056 0.0030079801 0.0047347518 -0.00018924965 0.00042136386 0.0022868474 -0.00048507319 -0.00089116575 -0.0041118958 -0.0018039363 -0.00085311942
一声 0.0028482857 0.004200032 0.0030626326 -0.0029792313 0.0026747345 0.0028798457 0.004850389 -0.0012091905 0.0025826779 0.0027322618 0.0043949811 0.0030575995 -0.0023254531 -0.0004226717 -0.0018975547 0.0043487544 -0.0027831635 -0.001099188 0.0035658483 0.0011776851 -0.0010396265 -0.0016377907 0.0019466107 -0.0017628274 -3.0605981e-05 -0.0039482363 0.0049173045 -0.0021537626 -0.00078890572 -0.0023404441 -0.0038540782 -0.0034108311 0.0030937276 0.0014185468 -0.00093338604 0.00022108435 -0.0018026767 0.0038868708 0.0022008133 0.00079489878 -0.0012529989 -0.00028044148 0.00058597006 0.0046087778 -0.0015067202 -0.00015052158 0.0027067699 0.00071838085 0.0039941892 -0.0015888271 -0.003137663 -0.00017644854 -0.0036309015 -0.0021179158 0.00063420163 -0.0037284442 0.0030158099 -0.0048554544 -0.0048935544 -0.0015579256 -0.0049542151 0.00069966441 -0.0034060425 0.0010957479 -0.0039906465 -0.0033385798 0.00049780722 -0.0036419788 -0.0010396016 -0.002620368 -0.0035641848 -0.0015979658 0.0030940862 0.0017045174 0.00011941349 0.0004202628 0.0045186612 -0.0024120708 0.0024825411 -0.0026961127 0.0033326414 0.0036305285 -0.00049728184 -0.0049475087 0.004584102 0.0040436606 -0.00032770669 -0.0004883284 0.0043509016 0.00069411588 0.0039434205 -0.0035130875 0.0016997893 0.0016932177 0.0027307642 -0.001021854 -0.001817874 0.0041127419 0.0043116566 -0.0024036122
大喊 -0.00075228949 -0.0023201711 0.0027420206 0.0041619614 0.00065687532 0.0011560707 0.0010805186 -0.0028890069 0.003084183 -0.0026497415 -0.0033184108 0.00093210948 -0.0040175174 -0.0024454161 0.0021156438 -0.00027310807 -0.00023559575 -0.0032404391 0.0041725989 -0.0004402833 0.00369759 -0.00067139952 0.0010313351 -0.0046167346 0.0023206281 0.0022011343 -0.0039889696 -0.003644146 0.0026992883 -0.004911717 0.0015534421 -0.00017906148 -0.0036864318 -0.0025325303 0.0047192522 -0.0017039923 0.0046107783 0.0011343096 0.0030879134 -0.00081904716 -0.0030446276 0.0030455007 0.0033049628 -0.0030538598 0.0007581212 0.003991188 -0.0018127774 -0.0012485592 -0.0027732663 0.0034958592 0.0026195822 0.0020861817 -0.0016475964 0.0039507807 -0.0028370942 -0.0022124774 0.0027438013 -0.0014043907 0.0036893913 -0.0030130709 0.0040951115 -0.0027839702 0.0033306689 0.001626223 -0.00078176457 -0.0024189013 0.0047814199 -0.0026880084 -4.4098688e-05 -0.0022764357 -0.002043792 -0.0021821638 -0.001077659 -0.001040434 0.0019881036 0.00040936132 0.0019029018 0.0030736052 -0.00084499875 0.0035057708 -0.0030011751 0.003505717 0.0024984335 -0.00076105731 -0.0011638096 0.0012820411 -0.0033508048 0.0013805976 0.00073519006 7.0164242e-05 -0.0037519501 -0.0027961407 0.0028124372 0.0016587958 -0.0025445325 0.00032382604 0.004964144 -0.0024817875 -0.00010130718 0.00059156754
第一 -0.0035231297 0.0023390595 0.0039217328 -0.0027516184 -0.0026703128 -0.003786478 -0.0029018645 0.0012227705 -0.00098791788 0.0027221974 0.00063501816 -0.0030999279 0.0018183005 -0.0044833692 -1.5148941e-05 -0.0029747817 -0.00083465874 -0.0019829858 -0.0010962451 -0.0015966535 0.0036866493 0.0047769514 -0.0012506323 -0.0018820995 -0.0041661626 -0.0022159882 1.3045174e-05 -0.0039962018 -0.0018089192 -0.0028197765 -0.0034304862 0.00010848127 0.0048239254 -0.0015172936 0.001319116 -0.0030913576 0.00050895428 0.0011144357 0.0012573128 0.001421615 -0.0039652712 -0.0031425317 -0.0048133158 -0.0019233994 -0.0023993019 -0.0014645868 -0.0030228102 0.003395532 0.0043079183 -0.0019798835 -0.0017147448 0.0025865606 -0.002048621 0.0045151976 -0.00034609778 0.0048130476 -0.00042183112 0.0020136957 0.00099789212 0.0030043302 0.0020626336 -0.0048628747 0.0046968381 -0.0019141199 -0.0032543296 -0.0010467514 -0.002646581 -0.0033169687 6.4999491e-05 0.0031616976 0.001885279 0.00085481408 -0.0023435547 -0.0048175235 0.0027909775 0.0040119449 -0.0026631437 -0.0037528491 -0.0017887076 0.0010503659 -0.0022912156 -0.001367668 0.00067957514 -0.0007377172 -0.00018407659 -0.0013981916 -0.0027680956 0.00022038711 0.0039561046 -0.0028187477 -0.00090754643 -0.0015330057 0.0028522916 0.00078532734 -0.00073073973 0.0024107036 0.0035081834 -0.003418969 0.0003066987 0.00088858337
卧槽 -0.0016827404 0.0036750608 -0.0011082835 0.00095300563 -0.0037261562 0.0028205698 0.001287785 -0.0047287145 -0.0049811662 -0.00014878272 -0.0042489278 0.0013869668 -0.000177389 -0.0018454381 0.0014364164 -0.0048707556 0.00078517536 -0.0014071096 0.0038383575 0.0043541021 0.0044277748 0.0027439899 -0.0045170719 -0.00093557633 0.001442653 -0.00042554937 -0.0047867591 0.0026214914 0.00041768415 0.0038652627 -0.0029840092 0.0001346279 -0.0030052392 -0.0021499924 0.0025799328 0.00024486741 0.0043867575 -0.00025630769 0.0047081681 -0.0003587291 -0.0049741734 -0.00024294475 0.0015413259 0.0021333077 0.0039113443 -0.0049918923 0.0045305956 -0.00056554459 -0.00070686499 -0.0019030746 -0.00054900348 -0.0033086729 0.0011729925 0.0047399504 -0.00090241322 -0.0045832247 0.00038825077 -0.0044137654 -0.0043668295 -0.0024639526 0.0039601005 0.004279315 0.0040499507 0.00068392593 -0.0037421084 0.00091573759 -0.00072902377 0.0029776569 -0.0037115747 0.0019430312 -0.0018178014 -0.0031038458 -0.002297438 0.00049893255 -8.9209112e-05 -0.0012539143 0.0043788804 -0.002944231 -0.0024708668 0.0031885114 0.0040277899 0.0025500569 0.0037393598 -0.00031300291 0.0038177948 0.00014244133 -0.0049330732 -0.00026615264 0.00054115488 -0.0025511431 -0.0031675198 -0.0040805861 0.0017521897 -0.0021549272 -0.0036715216 0.0047114003 -0.0033860842 0.00080760097 0.0027623852 -0.00064602011
符文 -2.2669426e-05 -8.1540711e-05 0.0025943937 0.00023652284 -0.0045385933 -0.00055238919 -0.0017370266 -0.0022143654 0.00053977978 -0.0022395214 0.0031810878 -0.00099000544 -0.0018255363 0.0032872544 0.0014599385 0.003771456 0.00015163075 -0.0020920241 -0.00363262 0.0043732142 0.0021378761 -0.0037153086 0.004238952 -0.00012053994 -0.0028827642 -0.00074227527 -0.0044319066 0.0048622331 -0.0045483434 0.0024349508 -0.0029304761 9.5041687e-05 0.0011809524 0.00051126821 -0.0028082156 0.0042879372 -0.004593573 0.0021180755 0.00063955528 0.0028815947 0.0045550526 -0.0019644964 0.0003902709 0.0032244227 0.0044108862 0.0026485154 -0.003196527 0.0028995441 0.0036879464 0.00097027997 0.0047424473 0.0018346262 -0.0025763588 -0.0025098345 -0.0011760138 -0.001709057 0.0022772863 -0.00022059445 0.002436361 -0.0038990721 -0.0029766329 0.002925483 -0.00022010307 -0.0042867507 -0.0014855433 -0.0044985106 -0.00073646137 -0.0034677798 -0.0033371137 0.0033546281 -0.0045785564 0.0042239525 0.00073756522 0.0014757209 -0.00081641588 0.0026015418 0.0018545673 -0.0028232851 0.0003943709 -0.0018304546 -0.00024086922 0.0018660985 0.0026617032 -0.0041096876 -0.0020123639 0.0012716728 0.0034940222 0.0036439567 -0.00067370501 0.0034780593 0.00055286114 0.0026276761 -0.0048794257 -0.0012074419 -0.0042330767 -0.0030505895 0.0030664317 -0.00065468706 -0.0041253162 0.0015973565
光罩 -0.0032438529 -0.0015565596 0.0039070537 0.0033310491 -0.002103185 -0.0031014576 -0.0010155919 -0.0011220915 0.0022275564 0.0033426073 -0.0035388786 0.0019701463 0.0038840624 0.00043038739 -0.0011078104 -0.0042272126 -0.0042407643 0.0021780466 0.0019649591 -0.0018966665 -0.0043352726 0.0010998973 0.00033067312 1.27378e-06 -0.0010971851 -0.00020880769 0.00080847589 0.00091031549 0.0014796887 0.00033173274 -0.0032281666 -0.0020204708 -0.0015002475 0.0038698912 -0.0026114425 0.0049019358 0.0045114933 0.00023939152 -0.0036258257 -0.0037375018 0.00029388451 -0.0012868637 0.0040705004 0.0042215637 0.00074265833 0.0031494056 0.0019652015 -0.0017460044 -0.0012345142 -0.0024683441 0.0031288944 -0.0002410305 0.0020194196 -0.0011837312 -0.0039041918 -0.0032500264 -0.00010463047 -0.0026175701 0.0021823484 -0.00101416 0.00076570723 2.1218017e-05 -0.0030447175 0.00028412123 0.0015411857 0.0031488615 -0.00289808 -0.0030552628 -0.0008703593 -0.0023547129 0.0032476189 -0.0019832344 -0.0034432735 0.0043377746 0.00092674443 -0.00099663157 0.0029277862 0.00059055327 0.0016538561 -0.0032881394 -0.0010475018 0.0043259929 -0.0017294623 -0.003982367 -0.0028634216 0.0006890379 -0.00023465809 -0.0037666485 0.003269814 -0.0018221975 0.00014880333 0.0027388993 -0.0032485786 -0.0032319617 0.0015270858 0.0045760004 -0.0032051965 0.0016400573 0.00082029786 -0.0010227336
光斑 0.0033226237 -0.0033149957 -0.00054825027 -0.0013803154 0.0020395285 -0.0048595229 -0.0033846302 -0.00019948209 -0.0037712557 0.0015045663 -0.0027923672 0.0018079849 -0.0044319802 0.0046958397 -0.00065819046 0.0034588501 -1.5848433e-05 -0.0012983964 0.00098189025 -0.0041142548 -0.0016732328 -0.0042496258 0.00085973437 0.0024284367 0.0047175251 -0.00070614094 -0.0048106965 -0.0019520181 -0.0033740546 -0.00093996909 0.0029339259 -0.00036653806 0.00085720385 0.0002948519 -0.0013095606 0.0014630391 0.004483473 -0.0011324337 0.0037835487 -0.0010764289 -0.00037968767 -0.0034594603 0.0004408909 -0.0036823389 -0.0033540749 0.0036013054 -0.001646752 0.004062274 -0.0042167222 0.0001324473 0.0020028139 -0.0040197726 0.0034534594 0.00095310196 0.0046667159 -0.0031405673 0.0043406505 -0.00069620385 -0.00085525488 -4.6769943e-05 0.0034449378 0.0020160242 0.00064186222 -0.0021359711 -0.003562093 0.003917655 0.0040864283 -0.0025834071 0.0042161858 0.0030162157 0.0029524516 0.0019288176 0.0010524616 -0.0014606173 0.0031685829 -0.0015616275 -0.0021338759 0.0035605899 -0.00031130388 -0.00012198614 0.00073282956 0.0020981994 0.0042193718 0.0045843087 0.0034501725 -0.0026416932 0.0044900775 -0.0039094193 0.0048898924 -0.0012545859 -0.0030734448 -0.0018692112 0.00098958088 -0.0029776318 0.0025866954 0.0012759937 -0.0025112194 0.003367279 -0.0020897922 0.0045091738
看不到 0.00080795528 0.0020351149 -0.0026419999 0.0018667228 0.0014052675 -0.0036619126 -0.0012861028 -0.0029611315 0.00051472976 0.0019773748 0.0049243942 -0.00142021 0.0046234638 0.0031408053 0.0032764666 0.0022405623 0.00056903705 0.0038263784 -0.0041788518 0.0037152416 -0.0047337892 -0.002855405 0.0014446119 -0.0011971017 -0.0023915092 0.0013344523 -0.0023607307 -0.0044664242 -0.00443736 -0.0031511753 0.0015486646 -0.0032217812 -0.0024241298 0.0040248167 0.0046969429 0.00048766989 -0.0035095708 0.0029370319 0.0049563041 0.00018488105 -0.0029069686 0.00097963226 0.0016267141 -0.0039202427 -0.0019701011 -0.0032072873 0.0048643211 -0.00097017782 -0.0038449171 0.00038576775 -0.00020027114 0.00052225497 -0.0043663955 0.0026272149 0.0026976934 0.00083324924 0.0030385812 -0.0018760394 -0.0017260821 0.0044117603 -0.0032160578 -0.0021759379 0.0028624132 -7.069821e-05 -0.0027897067 0.0041892054 0.0035044213 -0.0049104569 0.0047451477 0.0028887335 -0.0029704138 0.0031320697 -0.0048284791 -0.0023330906 0.0021605722 0.0037784229 0.0042362814 0.0017834861 -0.0023156663 -0.0016217089 -0.00069080218 -0.0022102913 0.0014973006 -0.0047896756 -0.00122418 0.0013377029 0.0029689774 0.0010780861 -0.0013337792 0.0035804089 0.004702569 -0.0029027315 0.00010239864 -0.0041642594 0.0027902743 0.001377194 0.0032223151 3.1518965e-05 -0.0020270103 0.0025531438
定是 0.0036524383 0.00084127975 -0.0022772783 0.0044752019 -0.0023447904 -0.0025882774 -0.0038400425 0.0022280032 -0.00067052926 -0.0018059501 -0.0041227466 -0.0039112139 0.0011431284 -0.00045851205 0.0038126684 -0.0011251252 -0.0027358108 -0.0022421258 0.00088226219 -0.00015042836 -0.00068975787 0.0011920728 -0.0019879094 -0.003786149 -0.0028763767 -0.0045530889 -0.0013260799 -0.0034150663 -0.00017822013 -0.002269051 -0.0043115681 0.0025004989 0.004768813 -0.0044407272 -0.00010951563 -4.5448607e-05 0.00012698361 0.0035465851 -0.0010198846 -0.003557516 0.00038861961 -0.0011991953 -0.0043723439 -0.0023326729 -0.0023308184 0.0011286547 0.0026796602 0.0009731389 0.0038996995 -0.0023986509 -0.0015181681 0.0035690854 -0.002358591 0.0035461201 0.0022833413 0.0028828061 0.0015384962 -0.0040097875 0.0033027327 -0.0023838084 0.0025359523 0.0022234046 0.00063344435 0.0010367022 0.0046627158 0.003783857 -0.0028040083 0.001377977 0.00089201058 0.00057968119 0.0013306226 -0.0027291665 -0.00411209 0.0014962321 0.0048067644 -0.0030939437 0.0028698659 0.00058676337 0.0047409753 -0.00058672781 -0.0012555326 0.0039610588 0.00035741334 0.00014864012 0.0047723032 -0.0038006094 -0.00047590025 0.0003006396 -0.0034345211 0.0021768946 0.0047345688 0.00065638596 0.0024395487 0.0018111796 -0.003800218 0.0037493263 -0.0046380186 -0.00098607165 0.0034874147 -0.0019848784
高人 -0.0038553402 0.00020364064 -0.004309095 -0.0039804173 0.0010336664 -0.0049718926 -0.0039277612 -0.0010095892 -0.0034362234 -0.0019971414 0.0036337839 0.0019130147 0.0038150891 0.0040932982 0.0013119099 0.0037313034 -0.0039154938 0.0042557903 0.0026826435 0.0020056274 -0.0031800012 -0.0021219209 -0.0032315317 0.0048948666 -0.0036902989 0.00028684858 0.00083664869 0.0046774661 -0.0049099755 0.0047395127 -0.0045562834 4.8759437e-05 -0.0036531878 0.0033222123 0.00085916638 0.0047982796 -0.0046903109 0.0012493563 8.9762114e-05 -0.0028071566 -0.0042112982 -0.00045011088 0.00047406714 -0.0028288458 0.0047655352 -0.0024240799 0.00053314283 -0.0038540803 0.0035553302 -0.0035235563 0.0021730019 -0.0036755216 -0.0041608941 0.0049693245 -0.00065754564 0.0033274868 -0.00029076813 0.0005325966 -0.0019979291 -0.0036866027 -0.0018654952 -0.0045366935 0.0017748795 -0.0015974562 -0.003892001 -1.2250596e-06 -0.0049637384 -0.0048287013 0.0013549983 0.0047844979 0.0044655725 0.0015916855 0.0028952777 -0.0030662057 0.0025223566 -0.0031237057 0.00037917565 -0.00025260521 -0.0049002301 -0.0036579983 0.0011735359 0.003558361 0.0010204782 -0.0045556808 0.0019824801 -0.0027189672 -0.0015437277 -0.0040324749 -0.0033577716 -0.0018997318 0.0015782011 -0.00021101137 0.00012801238 -0.003326508 0.0039348379 -0.0046892902 -0.0041337693 0.0010682399 -0.0017799669 0.0010990278
在劫难逃 -0.0028130591 -0.00091881177 -0.00024729836 -0.00018329066 0.0034640324 0.0012821804 -0.00499871 0.0014675693 -0.0042775357 -0.0011851795 0.0024211681 -0.00011155366 0.0023804323 0.0028379664 0.0048920787 -0.0020764226 -0.0036103304 0.0033977285 -0.00070382335 0.0028867384 0.002521714 0.0042088772 0.0047919224 0.0031053245 0.00081929582 0.0011719653 -0.0041463464 -0.0027027633 -0.0036880197 0.0034222431 0.0042522787 -0.0021745409 0.0014535015 -0.00083916902 -0.002606509 0.00050386455 -0.002610334 0.00318498 -8.4872998e-05 0.0023996832 0.0041756281 -0.0019869923 0.0020047054 -0.001992407 0.002719075 -0.0034854764 0.00016921906 0.00088537479 -0.0045168092 0.00018306465 0.0019017139 -0.0044628349 0.0023440102 0.0024566727 0.00087842601 -0.001761987 0.00056766032 -0.0039063967 0.0021344526 0.003600915 -0.0043840394 0.004483257 -0.00061480678 -0.0045222808 0.0041601113 0.0043530166 -0.001507052 0.0045625032 -0.0014267974 0.0036250462 0.00058118853 0.0037762525 -0.00060802308 -8.5796368e-05 0.0042335768 0.0037198884 -0.00078042306 0.00071943377 0.0010247105 -0.0043253563 -0.0037930689 -0.0042123199 0.0018763861 0.0048630233 -0.00053215638 -0.0038302764 -0.001882865 -0.001899518 -0.0046097701 -0.00017356887 -0.0039506909 -0.0027917982 -0.0013056063 -0.0022658596 0.0020755755 0.0021650384 6.5467884e-06 0.0010491709 0.0019907358 0.0045364131
听 -0.0018551926 0.0038182433 -0.0043942304 0.0018276208 0.0039977795 -0.00073044747 -0.0038686122 0.0020210915 0.0022963113 0.0033905071 0.0044111493 -0.00060524425 -0.0036508904 0.0043678656 0.0038879174 -0.0041622459 0.0011486744 -0.0045501399 -0.0034560151 -0.0027964937 0.0022471435 0.001917521 -0.0024294155 0.0030775082 0.0040421775 -0.0043793158 0.0017271118 0.0041277944 -0.0010806365 0.001243874 0.00069476536 -0.0043081515 0.00097924599 0.00020039057 -0.0039084763 0.004240951 0.00047486686 0.0048771459 -0.00074863172 -0.00090966444 -0.0039051969 -0.00022037076 -0.0010426838 -0.0033153864 -0.00072727818 -0.00078190665 0.0037237215 0.00074044114 0.00062079768 -0.0044240141 -0.0028602683 -0.0010106565 0.0029402175 0.0042552282 0.0013476296 0.0040479922 0.004907263 -0.0025611864 -0.0012185978 0.0038152793 -0.0022840188 0.0008622969 0.003231209 0.0047609508 -0.00095236162 0.004595838 0.0015786613 0.0019178913 -0.0041269111 0.00056348642 -0.00013785117 -0.0028387278 -0.0015577077 -0.0010269998 0.0046631014 -0.00168444 -0.0040867799 -4.4069915e-05 -0.00288212 -0.0014101831 0.0048289141 -0.0044484911 -0.0043136748 -0.00096233992 -0.0024605722 -0.0015388883 -0.0044173668 -0.0034188854 0.0012537207 -0.0043403315 0.0019777422 -0.0031347836 0.00017405461 0.0048539494 0.00098652171 0.00055597536 -0.0037568377 -0.0036062573 0.0043986975 -0.001573936
语气 -0.0046602944 -0.0037340012 -0.0047496301 -0.0025737369 0.0037560458 0.0042182389 0.0029745437 0.0038238177 0.0032474226 -0.0017786778 0.0018459983 0.00065777765 0.00066172791 -0.0015115398 -0.0038277456 -0.00058870576 -0.0046447199 0.0043837004 -0.0030339861 -0.00037629221 0.0029570796 0.00056558347 1.6787855e-05 0.00079385366 -0.0040521771 0.0010774038 -0.00018859678 -0.0013747986 -0.001323352 -0.0029249007 -0.0014586746 -0.0030479687 -0.0038944783 -0.0040289252 0.0013071402 0.0041545518 0.0040832851 0.00012760205 -0.00052290171 -0.0035221204 0.0027439161 -0.0042776698 0.0012056389 0.0014138704 -0.00018847981 0.0023409412 0.0033540344 0.0027214261 0.0047868704 -0.00021795445 0.0028679534 -0.00026692142 0.002474946 0.0028033766 -0.00094101153 0.0026328273 -0.0041947016 -0.0039687674 0.002339262 0.001497413 0.003680147 0.003929459 -0.0025861438 0.0016692185 0.003069785 0.0014580332 0.0042916215 0.0043277969 -0.00025586979 -0.0023450216 0.0044630445 -0.0014844614 0.0026590568 -0.0041606394 0.0021703467 0.0011912949 0.0014512202 -0.0035959417 -0.0010865359 0.001807411 0.0039382791 0.00093888363 -0.0038928248 9.4065006e-05 0.00154646 -0.0037626512 -0.0014692952 0.00033343805 0.0047898199 -0.0028055634 0.002343172 0.0025322996 0.0021113215 0.00060896523 0.0040938258 -0.0015710016 0.00042256055 -0.00084240088 -0.0026317737 0.0021390975
点 0.0035230797 0.0040755933 -0.0023882629 -0.000591552 0.0047732815 -0.0018729505 0.0047569587 0.00068122213 -0.0036522027 0.0019613202 0.0016009307 -0.0018619712 -0.00076968549 0.0022439074 -0.0022445493 0.0040611164 -0.0026029311 0.00091089658 0.001968699 -0.0026395761 -0.002174983 0.0045531215 0.00071340817 0.002001435 -0.0037915392 0.0012903599 0.0039914162 -0.0013223757 0.0010427469 0.0044314656 0.0020563153 -0.00038651764 -0.00089000404 0.0027802531 -0.00066637452 0.0024348206 -0.0016790379 -0.0037303646 -0.0048981369 0.0016418105 0.0012500535 -0.0043923366 0.0014721538 0.00050013699 -0.00078518852 0.0019210487 0.00059726468 0.0047572418 -0.00067295443 0.001811218 -0.0046713301 0.0019368675 -0.002334499 -0.0034257616 -8.5310985e-06 0.0030622811 -1.4244432e-05 -0.0036947937 -0.0033434357 0.0044879266 -0.0018265778 -0.004990181 0.0026703677 0.0017156047 -0.0022960051 0.0045575816 -0.0018070651 -0.0038672378 -0.00098778238 0.0028332449 0.0011085783 -0.0021650898 0.0011671296 0.0023210542 0.0022719607 0.004636155 0.0023300163 0.0037245019 -0.0012510713 0.00062917481 -0.0024705164 -0.0021563133 -0.0027709024 0.0019188019 -0.0037458788 0.0044233259 0.00038744966 0.0010428654 0.00073785061 -0.002404416 -0.00055962679 -0.0027092795 -0.001480878 -0.0025748238 -0.0043005124 -0.0021788788 0.0043187644 0.0013824699 0.0033767761 -0.0040077525
关切 0.0030686839 -0.0049754377 -0.0029880139 0.0039818189 0.0036611843 0.0039417427 -0.0039567398 -0.0048722122 -0.0019743997 -0.0043734415 0.0049901688 -0.0034702718 -0.0023860747 -0.0029025089 0.0030923958 0.0010797646 -0.0040485947 -0.00030092295 0.00074173236 0.0026630652 -0.0042893519 -0.00012361363 0.00063957501 0.0010115018 -0.0049908557 0.0014601985 -0.0041338694 0.0039201309 -0.0012955759 0.0015536632 0.0016248414 0.0021332884 -0.0047886972 0.0020384151 -0.0019045443 -0.0027819003 0.0036164343 0.0022806174 0.0017008312 -0.0026179908 0.0024999429 1.4224248e-05 -0.0044023497 -0.003151173 -0.0041762125 -0.0020702092 0.0015831242 -0.00087514543 -0.0019899127 -0.0039523733 -0.0024701441 0.0035983638 0.0032884444 0.0027726816 -0.0011710013 -0.00099409209 0.0032750948 -0.00055561768 -0.00020865082 0.0027707259 -0.0018486471 0.0013769749 -0.0032655383 -0.0041750977 0.0013509578 0.0026893185 -0.0026321278 0.0014600102 0.0012258454 0.0014340641 -0.0037930682 -0.0026694839 0.0035535535 0.0030643248 -0.004155328 -0.0017445826 0.0034268899 -0.0010200046 0.0047323378 0.0034547593 0.0020995142 -0.0032205612 0.0044976561 0.0029293082 0.0044453959 -0.0033226942 0.0040907599 0.00068919169 0.0012918104 -0.0044269734 0.0036942097 0.0044804057 -0.0037981099 -0.00095682935 -0.0041542584 -0.0027634231 7.9736281e-05 0.003321449 -0.0036087339 -0.0012935601
像是 -0.0020819625 0.00045473699 -0.0038623312 -0.004336847 0.0020128407 0.0049604541 -0.0039283568 0.0015299489 0.0028865894 0.0023023707 0.0046288781 -0.00129853 0.0033863077 -0.0035747932 -0.001662268 -0.0033516916 -0.0035548257 0.0013658325 0.001293997 0.0032417723 -0.0047649038 0.0011605322 -0.0025879652 -0.0026999698 -0.0031259935 -0.0026113677 0.0041517545 -0.0001000339 -0.0044730138 0.0018641647 -0.0018026747 0.00038967779 0.004382873 -0.003609533 -0.0003004212 0.0023044306 -0.0021465346 -0.0026318599 -0.0044312463 0.0021292542 -0.0016487871 0.0026270258 0.00044537205 0.0023265318 0.0015705463 -0.0043483838 0.0037986457 -0.0019060209 0.0048522134 0.0029833496 0.0037018689 -0.00094365509 -0.0023649118 -0.0038995552 0.0028746882 0.0030009367 -0.0011514748 0.0022175554 -0.00066201313 -0.004294809 -0.0029527287 -0.00015108455 -0.0027936029 0.0013503408 -0.0050091073 -0.0019936869 -0.0041552214 -0.0049099866 0.0013605563 0.0043398771 0.004631239 -0.00052689097 -0.0048510572 0.0026355942 -0.0029781163 0.0022808455 -0.00030747801 0.0048361733 0.0044063665 -0.00265702 0.0042294916 -0.0021899939 -0.0046304478 0.0033197072 0.0047242949 0.0048717284 -0.00090537238 -0.0021693199 0.0013876864 -0.0014112721 0.0023938245 0.0042990386 0.0036778564 0.0019466343 -0.0025734031 -0.0010383934 0.00090113463 -0.0010422869 -0.0034868456 0.0040432606
提醒 0.0018279062 -0.0038479178 -0.00036910694 0.00019398233 -0.0016022951 -0.0024810894 0.0013725964 0.00080813089 -0.0020695317 0.0037369195 -0.0011266265 -0.0029385199 0.0026230551 0.004185698 0.0015373221 -0.0019943914 -0.0030982192 -0.00096852705 0.0049328464 0.0020014015 0.00047789305 -0.00086026982 0.0045754598 -0.0046225181 0.00095900061 0.0038521974 0.0013360927 -0.0026212961 -0.0045756567 0.0032438508 -0.0043366863 0.0017281538 -0.0043865163 0.0022505848 0.0014884303 -0.0022109442 -0.0040565608 -0.0015963381 -0.0011037604 -0.0023218396 0.00036447527 -0.0024789989 -0.0039382973 0.0019876179 -0.0005704175 0.00083069562 0.002516659 -0.0034562955 0.0043303845 0.0012800172 -0.001731638 -0.0037813152 0.00015999384 0.0027674749 0.0049647274 -0.0016381855 0.0001304765 -0.0013355017 0.0027888359 -0.003046311 -0.0049223038 -0.001786494 0.0019124165 0.00021436921 -0.0028946865 -0.0030858843 -0.0044442457 -0.00409263 0.0035116652 -0.0026510227 0.00023024478 0.00091686496 -0.0034466281 0.0026548051 -0.0036219924 -0.0010331632 0.0028789514 -0.0016831218 0.0013078324 -0.0032518806 0.0045876955 0.0048038396 0.0045647472 -0.0011692027 0.003874182 -0.0020927689 -0.004093105 -0.0031065203 -0.0039755492 -0.0039930027 -0.0038614126 0.0022388538 0.0049383729 0.0025581268 0.0049022483 0.0041160099 0.0029170066 -0.00058497093 -0.0020910488 -0.0039365278
不像 0.0016911636 0.0020069531 -0.0010267689 -0.0018140384 -0.0029431835 0.00227812 -0.0026085307 0.0042189704 0.0027624827 0.00094199763 0.0024116305 0.0015018462 0.0036067986 0.0048120772 0.00056817417 0.0037384026 -0.0031444309 0.0018606518 -0.0042176777 0.0030101505 -0.0048482521 -0.00062300207 0.00034693608 0.0013618545 -0.00399843 0.001621458 -0.00244167 0.0036814064 0.0010235824 0.0032720657 -0.0043399213 -0.0031601063 -0.00038259127 0.0020110807 -0.0038708199 0.0021689748 0.00057476503 0.0049383915 0.0033100883 -0.00027654174 0.0046598478 -0.0019434146 0.0020186205 -0.00088421145 -0.0022900905 -0.0012198088 0.001548344 0.002078386 -0.0021653529 -0.0046959491 -0.0019100232 0.0045381342 0.0025430259 0.0027000939 0.0020961021 -0.0040624868 -0.0012483285 0.0014169887 0.0045935893 0.0030407393 0.0041772202 0.0023440747 0.0010818734 -7.0452093e-05 0.0033519536 -0.0010437859 0.0021974219 0.0031549071 0.0005442432 -0.0026827985 0.0045847162 -0.0023605381 0.0035573745 -0.0025058724 -0.0013292658 -0.0023335288 -0.0038256741 0.0039964211 0.0047386307 -0.0027240675 -0.0021262341 0.0018185469 -0.0045569059 -0.002713453 -0.00021740601 -0.0019351238 -0.0017464426 -0.0028772955 -0.0011809734 0.00054773863 0.0036395942 0.0018766236 0.0036408945 0.0012304076 0.00065762672 0.00089053024 -0.0037847345 -0.0018953065 -0.00014371811 -0.0023949898
江湖 -0.00012477879 0.0039883149 1.0380663e-05 -0.0020888534 -5.9955895e-05 -0.004873503 0.0014198149 -0.0046345354 -0.0041580535 0.00092240807 0.0034173564 0.0046778307 0.0017545224 -0.0017223281 0.0021134168 0.0036805677 1.8906192e-05 0.0022976936 -0.0010466863 0.0033845 -0.0014146579 0.00074493489 -0.0048705977 0.0012165396 -0.0048679444 -0.0026003271 -0.0046509071 0.0046067787 0.0045649013 -0.00074981636 0.0044020549 0.0045341267 -0.0047103856 -0.0039409217 0.004686682 0.0035047876 -0.0030272794 0.0012611944 -0.0034234696 -0.0049097068 -0.0019130143 -0.0010827628 0.0037338024 0.0013954507 0.0011693423 -0.0027216214 0.0038740912 0.0038891314 -0.0011483361 0.0022372133 0.0042515527 -0.004991116 0.0032884602 -0.0046553342 -0.0021884509 0.0014984582 -0.003290544 -0.00065141608 0.0022418199 -0.0030309882 -0.0010707432 0.0045407591 0.0041754302 0.0015180311 -0.0045209546 -0.0033399488 0.00063560461 -0.0043258625 -0.0035268874 -0.000121344 0.0041035563 -0.0026899213 -0.0031777835 -0.0036863626 -0.0037811855 -0.0042875106 -0.0011006863 -0.0031526904 -0.0028889864 -0.0043087704 0.0049335589 -0.0045932205 -0.0050068609 0.0023819606 -0.0014344614 0.0031908883 -0.004342346 -0.0033168055 0.00059809146 -0.00073676364 -0.004623598 -0.001677154 0.0027223083 -0.0040589585 0.0048243594 0.004879069 0.0029677949 0.0019154021 -0.0013996441 -0.0014627209
追杀 0.0044519315 -0.0023414411 0.0049090958 -0.0018811089 -0.00061683933 0.0019773243 -0.0024060935 -0.0019199818 0.0031885365 -0.0024568564 -0.00050512981 0.0020003556 -0.0020779229 0.0020131217 -0.003187577 -0.0045640357 -0.0029850206 -0.0037331867 0.0043894928 0.0029698217 0.0021589778 -0.00049248867 0.002750363 -0.0015175751 0.0017715754 0.0029812409 -0.0043873265 -0.0048022736 -0.0049478491 0.0015538821 0.00035219381 0.0011936784 0.0026291339 -0.0045797983 0.00016429745 -0.0035486186 0.00055321486 -0.001549525 0.0025336584 -0.00016105665 0.0047734017 0.0040546469 -0.0026429419 0.0024767972 0.0014130617 -0.0040159295 -0.0046436507 -0.0028635904 0.0030635055 -0.0025920791 0.0015915104 -0.00018687057 -0.0032400065 0.0045624846 -0.0038606937 0.0013608458 4.8905171e-05 -0.00081285945 -0.00014157397 0.0012249814 0.0034220216 -0.00037185327 -0.0017933816 0.0021755511 0.00052196189 -0.001534172 -0.0048032678 0.0015092763 0.0021197663 0.0024613873 0.0020913263 -0.0016794277 0.0020783599 0.0030292952 0.0011807826 -0.0021588418 0.00388635 0.0048994338 0.0025535382 -0.00056000939 0.0015897887 -0.00010976754 0.0020344676 -0.0036991499 0.002397279 0.0026851867 0.0025656139 0.0034780579 -0.0024038665 0.0004683451 -0.003064299 -0.0021286856 0.00243683 -0.0049672378 -0.0028486128 -0.0044045164 0.0030624426 -0.0041965246 -0.00028572898 -0.00074421352
步子 -0.00041078747 0.0016787404 0.00049024553 -0.0026229434 0.0027074716 0.0030419773 -0.0004737119 0.0046507139 0.0016799507 0.0033501002 -0.0047178129 -0.0038797988 0.0041456996 0.0048499629 0.0036247659 0.0026683067 0.0015210595 -0.0019459034 0.0036635771 -0.0042471392 -0.0032703893 -0.0032151206 -0.0022275606 -0.004071583 -0.0019665766 -0.0029682363 0.00057092169 -0.0034523709 0.0035920378 0.0022725398 -0.0011049341 -0.0018192113 -0.0011852105 0.00097190216 -0.0027824817 0.0039123897 0.0022203447 0.0020797004 0.00089642016 -0.0019690669 0.00040403803 -0.00084364566 -0.0046939743 0.0042696386 -0.0015375281 0.004474713 0.00093083055 -0.0046456526 0.0002013168 0.0016375764 0.0026442388 0.0025254826 0.0018746553 0.0014808881 0.0048405835 0.00070849434 -0.0010673667 0.00080648647 0.00080149219 -0.002814207 0.0039527649 0.0011617187 0.0022413577 -0.0036174699 -0.0048346827 0.00099140522 0.0012027824 -0.0044452795 -0.0021852446 -0.00020255968 -0.0038187993 -0.003517515 -0.0023795201 0.0019955104 -0.0045985556 0.0013595856 -0.0027894375 -0.0048041684 0.00053025765 0.0016498931 0.0039381655 0.0028210443 -0.00054217788 0.0038443962 0.0035592651 -0.0029632982 -0.0025088845 0.0036302137 -0.0020422197 -0.0048137964 0.00023579336 -0.0047587771 0.0048661511 -0.00030849749 0.0012704167 0.0028981366 0.0037671349 0.0016191638 0.0027914832 0.0032901596
迈出 0.00024203108 -0.00041073645 -0.0036949131 0.0012968524 0.00012327824 -0.0020054763 0.0038406835 -0.00028413584 0.0030087184 -0.0016048384 -0.00037643735 0.00041035825 0.0017423427 -0.0042351554 -0.0034027405 0.0011746349 0.0019197861 0.0016369901 -0.0012366882 0.0034286964 0.0023313088 -0.0042004902 -0.00093584589 -0.0046410128 0.0014890431 0.0029720331 0.0041583623 -0.0038116176 0.0030631276 0.0038532848 -0.00095972279 0.0038678213 -0.0011178838 0.0039922255 -0.0042308848 0.001169414 0.0047807554 0.0041133314 0.0022782017 -0.00044291446 -0.0025209386 -0.0013705698 0.001326588 0.0016274223 0.0025380261 -0.0048405011 -0.0042943535 0.0038795923 -0.0045235804 0.00031143779 0.00080259412 0.0032901182 -0.0044105221 0.0010853198 0.0048705977 -0.0025262062 -0.0017872117 0.0044761077 -0.0038190496 -0.003489994 0.0049761026 -0.0026537119 0.0021358705 -0.0027714137 0.0033742739 0.003103419 0.0041685104 0.0021667078 0.0048288233 0.00156414 -0.00046799183 -0.0042647938 -0.0045649158 -0.0010442534 0.0018686528 0.0023369547 -0.00359453 -0.0043681879 -0.0033754543 -0.0022493447 -0.0033492099 0.00035968143 0.0024702554 -0.0020750801 0.0024106975 0.00025889798 -0.00019435163 -0.0014461606 -0.0025805542 0.0042115711 -0.0037692119 0.00085322111 0.0045344871 0.0014954288 0.0024277812 0.0045725396 -0.00088312069 -0.0016830134 -0.0038949929 0.00292825
连贯 0.0030627933 0.00076526677 0.004225669 0.0007100302 0.0033543489 -0.0033789366 -0.0023106846 0.0048769168 -0.0048587257 0.00062063232 -0.0029042277 -0.0031182738 -0.0046381662 0.0014477727 0.002058489 -0.0015572008 0.00095870323 0.0011151864 -0.004200465 0.0035361566 -0.001289539 -0.0043500648 -0.0018325431 -0.0027042741 -0.0025140047 -0.0029080992 -0.0001219903 -0.001590066 -0.00026878098 -0.00063417584 -0.0036271391 -0.0044250241 -0.0048209024 0.00029333285 -0.0022944782 0.0042207967 0.00091624982 0.0034089964 8.1386468e-05 -0.0017355547 0.0031570096 -0.0049977186 -0.00013983902 0.0020209202 -0.0011223054 -0.003750867 0.0039179618 0.0039573028 0.0035180699 -0.0033014286 0.0041510165 0.001313332 0.00039604999 0.0032011583 0.00064152741 -0.00019746313 -0.0048796958 -0.0012705378 -0.0010003721 0.0019056674 0.0001315737 -0.0033661835 0.0033930531 0.0015002016 0.0034922773 -0.0044366214 -0.0017933911 0.0024684833 0.0048797335 0.0016199736 0.0044282489 -4.2239557e-05 0.0049610105 -0.00060129986 0.0024917054 -0.0047368333 0.00045437668 -0.0016416626 -0.0038291917 0.0010520905 -0.0025788008 -0.0030518353 0.00024912384 -0.0008926015 0.0034139948 0.0011399649 -0.0016202463 -0.0032104617 -0.0018796381 -0.001081886 -0.0022779901 -0.00076527474 -0.00056591368 -0.0027807527 -0.00042963805 0.0039176 -0.004847981 -0.0011528371 0.0031515628 0.0016640862
动作 -0.0040306458 -0.0021585422 0.0017925608 -0.004873991 0.0014122744 0.0042898813 0.0042951596 0.0019499651 -0.0026697479 -0.0021075909 0.0037226856 0.0018535962 -0.0015793333 0.0031102046 0.0044924361 -0.0030158716 -0.00061557797 -0.0040863543 -0.0017140387 0.00019455627 -0.0024573284 -0.00079732883 0.0011966372 -0.004103851 0.0020476375 -0.002700554 0.0020049585 -0.00096127542 -0.00086265244 0.00025498398 -0.0044317031 0.00085751753 -0.0022124948 0.002973201 -0.0046334919 -0.0022211405 0.00085611275 -0.0032079981 0.00064303272 -0.00056136999 -0.0023740055 -0.0043758759 -0.0035592476 -0.0030120993 -0.00018467224 -0.00062473491 -0.0040910607 -5.3665312e-06 -0.0042902711 0.0041994201 -0.0041714357 -0.0022702115 -0.0021869484 -0.0040918225 0.0017323316 -0.0027775909 0.0046114298 -0.0036404859 -0.0045338883 -2.6667554e-05 -0.0049726912 0.0029183519 -0.0040253168 -0.00029329077 -0.0027744959 -0.0031663096 0.00055553764 -0.0049356241 -0.0014838009 0.0014287565 0.0040701232 -0.00052341109 0.0036953886 -0.0030893004 -0.0024181516 0.0036588418 -0.00090435211 -0.0031877358 -0.00073534093 -0.0011702584 0.0038036571 -0.0026113875 -0.002713854 0.0018316562 -0.00096707715 0.0011204296 0.0020920979 0.0028736515 -0.0032560481 -0.0001487249 -0.00110742 0.00086483202 -0.0030154421 -0.0035719597 -0.0039363662 0.00066395378 -0.0015565135 -0.0017201962 -0.0037671051 -0.0044310391
车门 0.0020044839 0.0017825624 0.00075096206 -0.00027477942 0.0030452388 0.0021044915 0.0028845761 0.0029948063 -0.0022415614 0.00085742358 0.0039181896 -0.0011447493 0.0046568639 -0.0031552415 0.0039209435 5.8116452e-06 -0.0042245374 0.0019982774 -8.4598338e-05 -0.0047873938 0.0026880496 0.0013232193 -0.0037902289 -0.0014040623 -0.0024891957 0.0027189003 -0.0025040023 0.004950936 -0.00085925701 0.000800938 0.0043981601 -0.00025327835 0.0012938237 0.0045769429 0.0047947727 0.00079916668 -0.0013018345 0.0041934247 -0.0001968734 -0.0023720046 0.0018370978 -0.0048181619 -0.00033676132 -0.0020837348 -0.0032966149 -0.003433289 0.0042009638 -0.0049952348 -0.0018310447 0.0032000581 0.0035380539 0.00053366885 0.0041551003 0.0028695329 0.00078612537 0.0035951929 -0.00054789521 0.0032319427 -0.003463509 0.0013335258 -0.0009926717 -0.0047988179 0.0012914473 -0.0046502533 0.0027702458 -0.0024940947 0.0033678948 -0.0047955336 0.0003724726 -0.0049464861 -0.0029718035 -0.0049148863 0.0012649113 -0.00088048773 0.0018952846 0.0011373875 0.00037724167 -0.0039114095 0.0028562914 0.0023030993 0.0016240437 -0.0011987634 -0.0022271019 -0.0044533103 -0.0044421204 0.0014993857 -0.00019746284 -0.002487225 -0.00095924397 0.0030934173 -0.00046487307 -0.0033104757 -0.0041948054 0.0012527658 -0.001999272 -0.0035384421 -0.0018095857 -0.0026826719 -0.0013360119 0.004711037
感觉 0.0037023087 0.00029966247 -0.0015475518 -0.0043525761 0.0039526178 -0.0010561813 -0.0046177846 0.0046208859 -0.0016111267 0.00018711349 -0.0030714846 -0.0048630252 -0.00020839144 -0.0041591451 -0.00071089074 -0.0046715979 -0.00019114101 0.0038708108 0.0032478233 0.0034428432 -0.0020427471 -7.398484e-05 -0.0022126592 -0.0005586886 0.0029391947 -0.0048454194 0.00021395454 -0.00031609356 0.0016285069 0.0030010703 0.00017068026 -0.0035719061 0.0025830776 0.001980203 -0.001164634 -0.0049315915 -0.0019020578 0.00072004652 -0.0047683506 -0.0042888899 -0.0016739542 -0.0016348159 -0.0035660975 -0.0023796002 -0.0038423184 0.0042718286 0.0014283474 -0.0035970935 -0.0003015206 0.0028052612 0.0031277537 0.00069613359 0.0048258388 -0.0026187827 0.0023649589 0.0001543534 0.00072404277 0.0044040903 -7.5847907e-05 0.0042539979 0.00051112939 0.0043696044 -0.00064089068 -0.0043585976 0.00083736301 0.0043287305 -0.0046295696 0.0024601505 0.0045335386 0.0048411079 0.0017845506 0.0012919229 0.0030981263 0.0019770658 0.0028592499 0.0043594101 0.0039421879 -0.0017514793 -0.00094545999 0.00036129894 0.0011329841 -0.0040388247 0.0049045291 -0.0013406764 -0.003613282 -0.002628806 -0.0031832661 -0.001979043 0.0035825688 -0.0046782675 -0.0011312019 0.0038633563 0.0011149275 -0.00065207883 0.0037872337 -0.0019628555 -0.004680234 0.00099093874 -0.00058427895 -0.00041289107
阻碍 0.0039643361 -0.0045377188 -0.004159376 0.00071755209 -0.0036671537 0.0010936139 -0.0019651775 -0.0016136429 0.00187909 0.00064503582 -0.0045201518 0.003722473 0.0048341686 0.0039075678 0.00059120549 0.00073457503 -0.0036696082 0.0021063644 0.0024794962 -0.00048957416 0.0037857054 -0.0014600758 0.0018843403 -0.0017054639 0.0035900089 -0.0029306174 -0.0023731049 0.0047882162 0.00399847 0.0023465524 0.00032894645 0.0048106941 0.0042570326 0.0046192976 -2.1109256e-05 -0.0015680882 0.00032771847 -0.0047914465 0.0036323783 0.00035225414 -0.0049826014 -0.00057347439 -0.00021783699 0.00096972543 -0.0028486459 0.0020726367 0.0016886854 -0.0026922042 0.0035580536 -0.0027816435 0.0011648323 0.0047676177 -0.0039787767 -0.0013608574 -0.0014116714 -0.0047402275 -0.00090091099 -0.0049857195 0.0020674246 -0.0028537679 -0.00027893973 -0.00069146178 -0.0040111467 -0.0033757666 -0.0023147021 -0.00074497488 0.0012601012 0.0015533849 0.0010400064 -0.0045177178 -0.0021771553 -0.0044503189 0.0039627468 0.0033163552 0.0020314446 -0.0011726831 0.0040346608 -0.001890082 0.0018321218 0.0020938092 0.0046596476 4.7085774e-05 -0.0021311506 0.0018005659 0.0046554427 0.0022527671 0.00075395551 0.0042863982 -0.0024285901 -0.0023776884 -0.001008551 -0.0048273979 0.0030617262 -0.0039384202 0.00025600728 -0.0010674587 -0.0014376538 0.0038103098 0.0024410598 -0.0042857272
回头 0.00029562952 -0.0032236238 -0.0047478769 0.0031103606 0.0023770204 -0.0037173857 -0.0019132432 5.9046079e-06 0.0025325816 -0.0046092933 -0.0037660678 0.0014897754 -0.0025419644 0.0035304115 -0.00056885101 -0.0039073457 0.00063929375 0.0037832339 -0.00062225288 -0.0014384219 -0.0025773961 -0.00075324182 -0.0020576902 0.0012609484 0.0024708759 0.0017651448 0.0040917159 -0.0019104828 -0.0036908563 0.003354572 0.0031583358 -0.0023585088 -0.0018846974 -0.0023513068 -0.0029589967 -0.0021655855 0.002427039 0.0010948712 0.0031658406 -0.0012081761 0.00020128733 -0.0025298593 -0.0022079921 0.0029048242 0.0022017155 0.0039862827 0.0045511895 0.0011379531 0.00018076244 -0.0017761452 -0.0040833578 -0.0036080449 0.0031587032 -0.00014845998 -0.00076036662 0.00066812319 -0.001844605 -0.0010226937 -0.0035779052 -0.00069129193 -0.0019338704 -0.0025965821 -0.0015150351 -0.00026382433 -0.0026034387 0.0027877379 -0.0023602508 0.0018916178 -0.0021872576 -0.0012576851 0.0038590799 -0.0031960597 0.0003891837 0.003962581 0.00035334314 -0.0028967145 -0.0041741296 -0.0017361707 -0.003437723 -0.0025473307 0.0015849725 -0.004762975 0.0035210722 -0.0048132064 -0.0031612231 0.0027340245 -0.0028057448 -0.0028144999 -0.0013436778 -0.0020970365 -0.0029943339 0.0011156251 0.0022375071 0.00073655235 -0.0017258207 -0.0044583986 0.0015890064 -0.0024852217 0.0038277933 -0.0029683188
找到 -0.0014145635 -0.0013307973 0.0010498016 -0.0033466779 -0.00092222705 -0.0046139909 -3.0250914e-05 -0.003550143 0.001040873 0.0020772184 0.0020757352 -0.00047094026 0.0036841587 0.001143654 1.3070491e-05 0.0019415031 0.0025967255 -0.0023588005 -0.0016825105 0.0020985878 -0.0028261661 -0.0041374471 -0.0043406044 -0.00098289468 -0.0024844899 0.0033527522 -0.00096473703 -0.002614727 0.0037174348 0.0049422504 -0.0024972227 -0.0011262981 -0.0022738113 -0.0044267513 -0.0033424404 -0.0033826369 -0.0025951779 -0.0031910348 -0.004152766 -0.0014186164 -0.002261033 0.0031553681 0.0025228786 -0.00025172436 0.0025095677 0.0028118035 -0.004441502 0.0041296082 0.0032639126 -0.0033677551 0.0013117094 0.0030494002 -0.0045657312 -0.0044386173 -0.0047835144 -0.0044673085 0.00087383419 0.0014312714 -0.0033606794 -0.0016293995 0.00081699056 3.9646071e-05 0.00095185696 -0.0031729867 -0.0041294741 -0.00095421827 0.0043096049 0.0047474364 -0.0005832974 -0.0042868052 -0.00029807203 0.0009819736 0.00061941124 0.0020243216 2.4239753e-05 0.0046187961 -0.0026642664 -0.0024523118 0.002701479 -0.0014797606 0.0011229143 -0.002783936 0.0025355727 0.0031640646 -0.0031900632 -0.00044257558 0.0028296707 0.0034127783 -0.0020777755 -0.004763138 -0.0041713412 0.003963796 0.0014086636 0.0035141085 -0.0032528555 1.0687121e-05 -0.0015718936 -0.003456695 0.0024325429 -0.0028640328
发出 -0.0025911012 0.0042543011 0.0018126913 -0.0032978263 0.0014206192 0.0025688491 -0.0019272319 -0.0041668531 -0.0035783825 0.0049631754 0.00052795361 0.0036615066 0.0045670313 -0.0030105971 -0.00084546895 0.0039885584 0.0021920588 -0.0020407594 0.0031188384 -0.0017995486 0.002137935 0.0045131561 0.0015304808 -0.0029573424 0.0020199202 0.0042235423 -0.0049033565 -0.0048990212 0.0040587909 -0.003067282 -0.00045046781 0.0043429462 -0.0012846831 -0.0044229343 -0.0036041271 -0.002963962 -0.004820467 -0.0035309924 0.0049987105 -0.0021857575 0.0023903144 0.0046627787 0.00083449279 -0.0010160527 -0.00083108287 0.0013404654 -0.0047769169 0.00077575847 -0.0043389886 -0.0043785404 0.0027767993 0.00024174139 -0.00031482926 -0.0036470583 -0.00051943137 0.00071820855 -0.0028784175 -0.002092974 -0.0047853184 0.0029221806 -0.0035976204 -0.0049390411 -0.00017012969 0.00013788913 -0.00063028972 0.00025448523 0.0038943691 -0.0043855463 0.0021596861 -0.0023623938 -0.00058909232 -0.0033518795 0.0012945276 -0.0044668387 -0.0030803399 0.00095393381 -0.0049278717 -0.0010436568 0.0029689102 0.0046880101 0.0019975035 -0.0020876075 0.0015804045 0.0032932758 0.00048402834 -0.0024527309 -0.00025402932 0.00071064208 0.0040862141 -0.0029689602 0.0035740631 -0.0041382825 -0.0016950341 0.0015070763 -0.00032654795 0.0044943057 -0.0034693279 0.00498498 0.0028067867 -0.0028092109
发现 -0.0040551312 0.0021822893 -0.0019692031 -0.0042467951 -0.0012910502 -0.0029899927 -0.0010899059 0.0027232959 -0.0012118835 -0.0011667613 0.00095594354 -0.0012905339 -0.0043558711 -0.00027599835 -0.0042972853 -0.0028006511 0.0016014777 -0.0023252172 -0.0012882659 0.0032051452 0.00095589389 0.0039276383 -0.0019872 -0.0022469612 -0.00069352158 0.004554261 -0.0026934261 0.002772297 -0.0049817292 -0.002927965 -0.0019657707 -0.00081233861 0.0014800474 -0.0038488989 0.0020633787 0.0014886156 0.0018715587 0.0015528165 0.0024395131 0.00020438743 0.0042575216 -0.0034078239 -0.0012823272 0.004976945 -0.0049355347 0.0046552131 -0.0032803169 -0.0045995093 0.0029683777 0.00028687983 0.0037691509 6.9065914e-06 -0.0029670964 0.0029172355 -0.004168049 -0.0031537893 0.00042162783 -0.004655791 -0.0027185914 -0.0047405036 -0.0036714198 -0.0011600561 -0.00028117088 -0.0027329524 0.00247264 0.0015101262 -0.0009614391 0.0048608417 -0.0011820174 -0.0028276138 0.0034188153 0.0030494777 -0.0028065268 -0.0015567873 -0.0012050805 -0.0017474568 -0.0032835528 -0.00030555454 0.0033978005 0.0023749054 -0.0019408329 -0.0044189435 0.0027267004 0.0010505463 0.00031027588 -0.0035209355 0.0034808042 0.0037260493 -0.0041759247 0.00025809655 -0.0039100102 -0.0032465733 -0.0049799578 0.0049059647 -0.0045064087 0.0014044432 0.0021507337 0.003378686 0.0046583219 -0.0035258073
外地 0.0038049999 0.0025335951 -0.0023687533 -2.654717e-05 0.0037812067 0.0046671173 -0.0032734741 -0.0016227523 0.0022190555 -0.0036395886 -0.0029336594 -0.0032012786 0.0022286116 -0.0036697511 -0.00015618504 0.0011291621 0.002734035 -0.0021648828 -0.0010521605 0.0033108105 -0.00071063987 -0.0025224199 -0.0040383497 -0.0016374367 0.00057665585 -0.0035738102 -0.0037999905 0.0041545276 -0.00018646219 -0.00016537381 -0.0036161942 0.0021596572 -0.001923998 0.0029296624 0.0021336251 -0.0035387997 -0.0017654983 0.00044187269 0.0010341764 -0.0011576343 0.0012187783 0.00087898684 -0.0048154755 0.0019802053 0.00029974291 0.0048359707 -0.0026113898 -0.0020058085 -0.0047727255 0.0018739298 0.00010493656 0.00030047164 -0.0023941929 -0.0018674912 0.0028921636 -0.0027098863 -0.0040131169 0.0048234663 0.0013508798 -0.0044083274 0.00017273989 0.0006045893 -0.00021586963 0.00015115719 -0.00015035982 0.0013744999 -0.0016988344 0.0027853239 -0.0047574979 0.0042910688 0.0016037254 0.0039934306 -0.0026284796 0.00088962307 -0.0044425973 -0.00047579678 -0.0025600949 -0.0030129845 -0.0023804214 0.00017809612 0.00096157118 0.0028346842 -0.0042246985 0.0011066656 -0.0044172741 -0.0019087602 -0.0033009916 0.0039521866 -0.0045178114 0.0037907674 -0.0025734368 -0.0025335648 -0.0039159963 -0.00017041356 -0.0030286179 0.0036598167 0.0016529576 -0.0014066647 -0.00062946789 0.0040985979
朋友 -0.00060952775 -0.0033469938 -0.0016598199 0.0019640911 -0.00047820809 0.0037151959 -0.0012583261 -0.0018402074 -0.0038418677 0.0026727424 -0.0023257281 -0.0031646024 0.0032061518 -0.0021953059 -0.0014382105 -0.0045632105 0.00066478358 0.0018863069 0.0039910884 -0.0047636381 -0.0026374168 0.0016212895 0.0020003128 -0.001528059 -0.00077970664 0.0046648686 0.0022589175 0.0029582304 0.0010642575 0.0032097597 0.00027428012 -0.0033931872 0.0016052052 0.002019099 -0.0045782276 -0.001328953 -0.0032202716 0.0038261716 0.0017012965 0.0033554216 -0.0015905588 0.00073254999 0.0019567392 0.0024303752 0.0046223034 0.0016677876 -0.0032766117 -0.0048165196 0.0039811917 -0.00053557317 0.0012332123 -0.0048585231 -0.002424408 -0.00057756802 -0.00048172142 0.0022233112 0.0010102756 0.0026659428 0.0025511668 -0.0022218893 0.0030601646 -0.0025789035 -0.001992116 0.0023065805 0.0036873308 -0.0040960126 -0.0032671567 -0.0027671435 -0.0016915675 -0.0039025072 0.0049554715 0.00058360584 -0.001442026 -0.0033292067 -0.0030483915 0.0018038722 -0.0047946135 0.00038504158 0.0017750235 0.0018858282 0.0044221343 0.0018662803 -0.0022908452 0.0023388902 -0.0026053248 -0.00042368629 0.001366242 -0.00089728291 -0.001441663 -0.0044880924 -0.0038111026 0.00061919331 0.0011557818 0.001980989 -0.0049157641 -0.00083846966 -0.0022155012 -0.0034441948 -0.0023420837 0.001149514
功力 -0.0043084621 -0.0020657117 -0.0025298775 -0.00036007253 -0.002283186 -0.0011428893 0.0043731611 0.0026200602 -0.0046894541 0.0015669811 -5.0025745e-05 0.004958082 0.0010234222 -0.0019543224 -0.0046649603 0.0036786636 -0.0026889655 -6.4874424e-05 -0.0012535938 0.0038308478 0.00097627589 -0.00021924094 -0.0028641799 -0.001001246 -0.0024662709 -0.002245063 -0.0034794009 0.0041212207 0.00034525365 -0.0038287013 -0.0041277003 -0.0033019492 0.0046973666 -9.3544702e-05 -0.0039031347 -0.00142211 -0.0014606022 -0.00025857141 0.00146134 -0.00040184605 0.0033872668 0.00070193678 -0.00061780371 -0.0033589415 -0.0045587048 0.0035500284 -0.0011848761 -0.0014788744 0.0002337505 -0.0049064225 0.0034292578 -0.0001813069 0.0029129935 0.00080736692 -0.0022381723 -1.3788495e-05 -0.00071769184 -0.0022804772 0.0030515958 -0.0036059483 -0.0012160577 -0.0037529496 -0.0027831313 0.0012135983 0.004446947 -0.0047097579 0.0047226516 0.0030519909 0.0048920554 -0.0021644013 -0.00066039944 0.0029328458 -0.0045065484 0.0042622029 0.0028924982 -0.0047914265 0.00023937118 0.0019246207 0.0031206808 -0.0035283507 0.0003697045 -0.0049201576 -0.0001570992 0.0031917186 -0.00078159873 0.00077653036 0.0034882191 0.0020107115 -0.0012170258 0.0048895553 -0.0049105734 0.0048942226 -0.0014516887 -0.0041558985 0.0032590292 0.00086372369 -0.0032537729 -0.00060903869 0.0025584034 -0.0019561322
欠佳 0.0028785148 -0.0028498552 0.0047710594 -0.0046382532 0.0013193408 -0.0012458662 0.004677501 0.0014578885 -0.0017115986 0.0024586974 -0.0012491569 0.0015964916 0.00017447936 -0.0049674143 -0.00031078019 0.00063783827 0.0049820151 -0.00093723537 -0.0022202006 0.0019593129 -0.0048261257 0.0039111753 0.0014485768 0.0049125254 0.0049435208 -0.001741011 0.002925857 0.0025214765 -0.00079453061 0.0022514998 0.0016228074 0.0017059849 0.0027335789 0.0035672977 -0.0020863621 -0.002907272 0.0031570087 -0.0047193118 -0.0043311655 -0.004928933 -0.0046860413 -0.0039251372 0.001175998 0.0013769672 0.0029090878 -0.0048236297 0.0031499523 -0.0025500495 0.0046026483 -0.00057505508 -0.0020301058 0.0010564213 -0.00033339238 -0.0021397958 -0.0035001577 0.0040628049 -0.0030076155 -0.0024611983 0.0022764667 0.0045567714 -0.00021232011 0.0010907957 0.0027161227 -0.004814751 0.0033351567 0.004953946 -0.0023470973 0.00050302647 0.0024948881 0.002611232 0.0002981062 0.00067337975 0.00010177506 -0.0014275836 -0.0024846292 0.0040228642 0.00023308543 0.0013428968 -0.0030804782 0.0029458913 -0.00098015799 -0.00084523065 -0.0014582428 -0.0025948968 -0.0031208429 0.0018760674 0.0035584427 0.0045336667 0.0014464359 -0.0008217573 -0.0045835492 -0.0048173205 -0.0010701399 -0.0047784061 -0.0010126784 0.0026165575 0.0033730671 0.0029747144 0.0031013985 0.0032752578
没到 0.0021086906 -0.0017373384 0.0019524434 0.0015234365 0.00055385556 0.0028215279 0.00074453343 0.0028877438 -0.0015793002 -0.0011495334 -0.0017469418 0.004881579 -0.0021989448 0.0007218619 -0.0015650371 -0.0039674323 0.0011333934 0.004818521 -0.0034512219 0.0023140078 0.00065419113 -0.0012886161 -0.00080355251 -0.0025545845 0.0029527252 -0.003235209 -0.001882622 0.004874052 -0.00016231454 0.0011706483 0.00080353953 -0.0023981754 -0.0023936881 0.00038941362 -4.7950758e-05 -0.0026112953 -0.00037983662 -0.0011332266 0.0038220508 0.00019391674 0.0019223765 -0.0026833226 -0.0047580097 -5.48754e-05 0.0040113959 -0.0018713129 -0.0037808979 -0.0042354772 -0.0020015861 -0.0013271898 -0.0018149905 -0.000930793 0.0020159234 0.0044408529 0.001541888 -0.0020909198 0.0013242415 -0.0019197444 0.0036066864 -0.00059275219 0.00069150794 0.0011240167 -0.0018120689 0.0044891625 0.0021614737 -0.0010051036 -0.0048785694 -0.00023793278 0.0035215896 -0.0033502611 0.0026807929 -0.0025029168 0.0020327659 -0.0021154655 0.00044614059 0.0025450774 0.0034694434 -0.0034548126 0.0040610875 0.0044945106 0.0011249541 -0.00060439535 -0.0041708061 0.0027648353 -0.0013415325 0.0020763155 -0.0021368228 -0.0036999644 -0.0029230295 0.00137405 -0.0027242396 0.0037063325 -0.0022845054 -0.0033874973 0.0033098685 -0.0015665798 -0.0022210535 0.00044962054 -0.001049631 0.001301849
独闯 -0.00074517832 0.0038553858 -1.3174379e-05 -0.00050423184 -0.0044605271 0.0035905428 -0.0046450403 -0.00021260233 -0.0011639935 -0.001504139 -0.00059127499 -0.0018127491 0.0014298946 -0.0011837122 -0.0014462838 -0.0010095703 -0.00044439206 0.0034397207 0.0025355457 -0.0014201755 0.00094710098 0.0011903672 0.0030315956 -0.0014158419 0.0023115971 -0.0023831599 -0.00042155493 -0.0014847532 -0.0031605817 -0.00051392097 -0.0043867673 0.0013240483 -0.00069472427 -0.0032156694 -0.004341118 -0.002098151 -0.0027166747 0.0021263196 -0.00074319856 0.0034845429 -0.0013317388 0.0046282383 0.00078760512 -0.0025924335 -0.0026952075 0.00036796436 0.0015969364 0.0047681942 0.0030137964 0.0046782834 0.0049948087 -0.0037167503 -0.0039802892 -0.0019163511 -0.00022258337 -0.0004041951 0.0008180135 -0.0015428573 0.0019676478 -0.00062377524 0.0018370461 0.00087304239 -0.0045511094 0.00040039932 0.0035659724 -0.0034742202 -0.0016944254 -0.0028260762 -0.0014601712 -0.0005359819 -0.0011094895 0.0015149793 -0.0019367096 0.00092017447 0.002003531 -0.0029300235 0.003209413 0.0040593832 -0.0040187906 -0.0010376032 -0.00084101217 -0.0026888708 -0.0030474619 0.0022802108 0.004823769 -0.0033538975 0.003166246 -0.0042328741 -0.0035574604 -0.0044669346 -0.0021987616 -0.00015037012 -0.0039655981 -0.0037978927 -0.0038122747 -0.0040528458 -0.0042762239 -0.0026016484 0.0029049278 -0.0044878991
南天门 0.0011522059 0.0023964564 -0.0045892689 -0.002176313 0.00060896092 -0.0045182812 0.0027485059 0.0021058663 0.0016726399 -0.00052041968 -0.0045746733 4.0657676e-05 -0.0014138253 0.0033337532 0.0012573666 0.00078105414 0.00063047459 -0.0041712062 0.004671501 0.0039712712 0.0030582065 -0.0023438139 0.0028266704 0.002803097 -0.0034423301 0.00037916293 0.0048036491 0.00076982606 -0.002911658 0.0036314672 0.0045595076 -0.0038538817 0.0010097052 -0.0019927663 0.0034338092 -0.0029942354 0.0029362699 0.0014420819 -0.002949185 0.0021692412 -0.0030985358 0.0028689394 -0.0035367708 0.0014040164 -0.00094521366 -0.0035148314 0.0034104618 0.0027796743 -0.0013087196 0.0020990358 0.00033533727 -0.0008039549 0.0021182799 0.00083953002 -0.0040046507 -0.0021075287 0.00037578083 -0.0036433167 0.0044896337 -0.0044552563 -0.00059862778 0.0037796628 0.00039222083 -0.0030129564 0.0012999406 0.0023802684 0.0021986642 0.0025728226 0.0042473283 0.0036454506 0.0032903398 0.0020213302 -0.0020354961 0.00012257746 -0.0047175819 -0.0020676656 0.0039916332 -0.0044009271 0.0013971668 -0.0034386055 -0.0025072205 -0.0026344797 0.0023249038 -0.0026442376 0.0027221215 0.0021006183 -0.0024270136 -0.0015736491 -0.0033008256 0.0013498438 0.0034322774 0.0032509444 0.0016878298 0.0035845367 -0.00082889281 0.00017350374 -0.0023245963 0.0048607243 0.0020585768 -0.0033211277
境界 -0.0021383888 0.0034427161 0.00072791736 -0.00080367079 -0.0041272431 0.0025335271 -0.0037193543 0.00010289589 0.0021849887 0.003257938 0.00050267606 0.00027245935 0.0037413356 -0.0019755578 0.0030870575 0.0042479439 -0.0035235605 0.0043880204 -0.002161629 -0.0043068854 0.004920816 0.0020359771 4.9159644e-05 -0.0030768288 -0.0016640918 0.0041190875 0.00092044339 0.0025731681 -0.0049583078 -0.0041847969 0.00088628172 0.0042764791 -0.0014014507 0.004856253 0.0032716037 -0.0031825071 0.0026406562 -0.0034197029 0.0026827243 0.0046258974 0.0045221327 0.0040539284 -0.0039163264 0.0025764168 -0.00017006867 -0.0016186248 0.000951052 0.0014605781 -0.0033258477 -0.0019020481 -0.0028011955 0.0012456498 -0.0041057146 -0.00093407551 0.0038001523 0.0033133526 0.0049661295 -0.00046012539 -0.0010253332 -0.00021294404 -0.0012945022 -0.0045335204 0.0035027561 0.0042884247 0.0020376886 -0.0028824524 -0.0034658823 0.00096954318 0.0044644778 -0.0016371103 -0.0036384375 0.00469071 0.00090860977 0.001553787 0.0016048168 0.0011702713 -0.0023850999 0.0029624291 0.0013137095 -0.0037018331 0.0033352913 -0.0043899813 -0.0042234054 -0.00044681382 0.0034095845 0.0040043513 -0.0048820283 0.0032290809 0.0014754839 -0.0040525044 -0.0014862191 -0.00044603387 0.0038968902 0.0047472515 0.0015115073 0.0023558415 0.002080359 -0.00066458975 -0.0048978445 -0.0031994947
慎重 -0.0036935965 -0.0035220489 -0.0016424747 -0.0041148551 -0.004887037 0.0018966665 -0.0045176693 0.0045145019 -0.0040298458 -0.00088244799 0.0038173276 -0.0013033542 0.0045912499 -0.0005891663 0.0021994335 0.0034089568 0.00015455078 0.00014283569 -0.0037327369 0.00057158672 0.0041420264 0.0025020007 0.00087267556 0.0005018384 -0.0012008767 0.0039556362 0.0039523765 -0.00014425395 0.0040476923 -0.0031209702 -0.00023044468 0.0030431044 -0.0002104403 -0.0049882336 0.003763312 0.00093337998 -0.00081262074 0.0033301129 -0.0046237158 0.0032527796 -0.0034494589 -0.00010482512 0.0022444716 -0.0037071672 -0.0019583418 0.0038594648 -0.0018697971 -0.00069970707 -0.0040357462 0.00195696 -0.0048309444 0.0039020465 0.0035464361 0.0046460493 0.0030016315 0.0026850603 0.0040635038 -0.0044764029 -0.0012050421 0.00118542 -0.0043866122 -0.0033062461 0.0012275624 -0.0044787135 0.0040166415 0.00035704841 0.0026527653 -0.001103894 -0.0015375841 0.0032263126 0.001214292 -0.0011400345 0.00043192328 0.0029064047 0.0021886402 0.0027073501 0.0041495329 -0.00079651334 -0.00064805389 -0.0043095388 0.0038246524 -0.0011199416 -0.0048051924 -0.0032877284 0.0027819097 0.0034184719 -0.0029000493 -0.0016276558 0.0025028163 -0.0036901059 0.00013824334 0.0047182241 0.0023325637 -0.004848877 -0.0042826575 0.0014456232 -0.00015920388 0.0037522027 0.0018211065 0.0034578212
前往 -0.0012172554 -0.002331953 -0.00457909 0.00084898685 0.0045896433 0.0020826687 0.00035216581 -0.0017164124 -0.0017538611 -0.0036732217 0.0035751599 0.0020381159 -0.00078432722 0.00034861083 0.0023081906 0.00045908752 -0.00045653776 -0.0014111003 -0.00074782781 0.00090346008 -0.0025309329 -0.0049513425 -0.0019725913 -0.0024328735 0.0036636384 0.00085481029 0.0046319719 0.0039073862 0.0011812118 0.003421257 0.00083215843 -0.0026040047 -0.00032882966 -0.00079403323 -0.0036722918 0.004145504 0.00047532565 0.00033937398 0.00026879329 -0.0041890424 0.0022870919 -0.0035226312 -0.0013462738 0.0025606765 0.0015408755 0.0042017619 -0.00010008819 0.0028820341 0.00055211253 0.0035290308 0.00032427179 0.00078605657 0.00090685341 0.0016861985 0.0020009032 -0.0010632963 0.00221217 0.0009587066 0.0028808061 -0.0041984846 -0.0028777383 -0.00065853272 0.0028553247 -0.003165066 -0.0043052067 0.0026632722 0.0045201257 -2.3468659e-05 0.00067345722 0.0024302425 -0.001011653 0.001306848 -0.0014477938 0.00093414937 0.0010415821 0.00096560374 -0.0042892555 0.0037149042 0.0040515312 -0.0047887876 -0.0011388436 -0.0017275314 -0.0021350847 -0.004795617 0.0016129285 -0.0013859583 -0.0029498504 0.00048443626 0.0017412694 -0.0023719161 -0.0047164815 -0.00091208413 -0.0017219118 -0.0026797559 0.0045366068 0.001933471 -6.8562629e-05 -0.0046123257 0.001836364 0.0038550065
男同胞 0.0021238094 0.0018691445 0.0047360212 0.0037230768 -0.00023102295 0.0037673505 -0.0027207648 0.0015172755 -0.0031285249 0.0033652082 0.0035150023 0.00018028934 0.00063115533 -0.0024629931 -0.00027986552 -0.0040920665 -0.0025705781 0.0045826267 -0.0022381658 -0.0032075627 0.0025044067 -0.0012109338 0.0016031996 -0.0027784 -0.0017947052 -0.0027855104 -0.0003540655 0.00078010903 -0.0031598839 -0.0021349322 0.002646602 0.0047503095 0.0013181438 -0.0043201488 0.0015643371 0.0015294981 0.0033753079 0.00074474321 -0.0049862796 0.0038239243 -0.0031230457 -0.0049607079 0.0018775221 -0.00085657358 0.0046829865 0.0023136574 0.0042738323 0.0036353255 -0.0049690711 -0.0038810072 -0.004002946 -0.0044914321 -0.003620646 -0.0042540799 -0.0035608371 0.0046548108 -0.0032013981 0.001823193 0.0005556884 0.0049364935 -0.0025510348 -0.0033538048 -0.0031356355 -0.0041510095 0.0049199932 0.0045014075 0.0048559718 0.0041660564 0.0036199819 0.00066730182 -0.0025806599 0.0045193746 -0.0038006222 0.00019834712 -0.0014759304 0.0028592299 -0.0038288084 -0.0017504839 -0.0021084934 -0.0022663095 0.0010302824 -0.004359955 -0.0016105272 0.0026970729 0.0026862149 0.0048545403 0.0049400893 -0.0035692903 -0.0020872646 0.0037790688 0.0032370673 -0.0033553212 0.0048913783 -0.0037143396 0.0030285327 0.0028758196 0.0043921103 0.0022691186 1.0449353e-05 -0.00079366582
情况 0.0040673935 0.0027433869 0.0022526982 -0.0041204421 -0.0043597193 0.0036204814 0.0038452484 0.001651646 -0.0030067805 0.0015801415 0.0036403066 0.0043504788 -0.0032350128 -0.0047027813 -0.0035131092 0.0033018687 0.0037097016 -0.00016671255 0.0019883469 -0.00064134458 0.0027483054 0.0022381474 0.0002482936 0.00014978863 0.0042222585 0.0021390426 -0.0048124441 -0.00086922199 0.0046475581 -0.00067303545 0.00089194445 -0.0037164199 0.0019921206 -0.00085399614 0.0049144835 0.0028207949 -0.0043444615 -0.0033435503 -0.0022708818 0.0042613074 0.00016586563 0.0032623291 -0.00038099455 -0.0013829033 0.0045052469 0.0025785107 -0.0013083548 0.00060241751 0.002695113 0.00014977754 0.0036843286 -0.0032021129 0.0035789763 -0.00025836387 -0.00049454422 -0.0034098905 0.0035217684 -0.0036082214 0.00024790232 0.0016034222 0.00053266424 0.0036119248 0.0025879899 0.002517397 -0.0043391692 -0.0022954796 0.0024337794 -0.0047063474 -0.001339223 -0.0018490613 -0.003000993 -0.0046900413 0.0005351475 0.0038285921 -0.0023196097 -0.0045299553 0.0002467093 -0.0015787027 0.0020614294 -0.0049241348 0.0027857067 -0.0024714265 0.00084464875 -0.001117575 0.0017420317 0.0022422415 -0.0037655558 0.0031222724 -0.0043386472 0.0049237069 -0.00038033229 0.0015251051 -0.00048581176 -0.0027754891 0.0021334621 0.0011496786 0.0045293956 -0.0044856183 0.00061768969 -0.00028502179
一点 0.0027383135 -0.0039333315 0.0042072409 0.0041132779 0.0044284975 -0.0028876241 -0.001675897 -0.00424382 -0.00084867002 0.00057264749 0.0011376599 -0.0048961341 -0.0034877155 0.0035892939 0.0029046733 0.001850325 -0.0013018055 0.0017112845 -0.0013722825 0.0006877305 0.004642373 0.0049135457 -0.0043543926 -0.0013824705 0.0029072792 -0.0037564572 -0.0030804831 0.0013778146 0.0030603227 -7.1429611e-05 -0.0044171694 -0.000437204 0.0030742306 0.0032128629 0.0036587638 -0.004948888 0.0027298308 0.00019093242 -0.0034283225 -0.0021520026 0.0044702552 0.002223548 -0.0026604692 0.000470623 -0.0047864555 0.0041255709 -0.0026680164 -0.0036070484 0.0013529254 -0.0043598902 0.00058978808 -0.00054989074 -0.0022266749 0.0013771069 0.0042718109 0.0032953641 0.0013257785 0.00072438753 -0.0035247395 0.0029063362 -0.0016610626 -0.00065882521 0.0019188237 0.0016182612 0.0037531783 -0.0038443159 0.0016063649 0.0029381178 0.0033341534 0.0038729177 -0.00010213527 -0.0043425541 0.0002960886 0.0014752975 -0.0019271182 -0.0049709105 -0.0007022699 0.0047736927 -0.0046502282 -0.0020615461 0.0032104962 -0.0049600187 -0.00054118515 0.00055223453 -0.00039301105 0.0025121947 0.0016129889 -0.0004274575 -0.0017551999 0.0028011457 0.0049967566 0.0041229664 0.0003597071 0.00068591256 -0.0012562615 0.0033010053 0.0005701909 -0.0042867111 -0.004169574 -0.00014940933
女同胞 0.00046270288 0.00069847173 -0.0040183994 0.0047175749 -0.0037244267 -0.0021238241 -0.0022517196 -0.0040106424 0.00067526789 -0.00317702 -0.004617074 0.0038300168 0.003057546 -0.0031896338 -0.0034285362 -0.0021320402 0.0039312276 0.0019518003 -0.0024645512 -0.0026037407 -0.0031822999 0.0049731024 0.0040860795 4.060629e-05 -0.0022815629 -0.0029936568 -0.0017721266 0.0019881888 -0.0023221241 0.0028373583 0.0019712469 0.0047044037 0.0024727278 -0.00040983903 0.0030137503 0.0048433277 -0.0032336172 -0.0030120867 -0.00050697121 -0.0030186691 0.0029888884 -0.0027626154 -0.0041171811 -0.0034841201 0.002391028 0.0033413749 -0.00099914393 0.0036233852 -0.0049089929 -0.0028083266 -0.0039973231 -0.00084629265 -0.0041053314 -0.0043724524 0.0047861584 -0.0024001889 -0.0035978924 0.0004052149 -0.001658099 0.0049412898 0.0014323979 -0.0019934904 -0.0013722657 0.001273224 -0.0034050257 -0.00066649879 -0.0031962274 -0.0031683838 -0.0021515563 -0.00029437256 0.00069492561 0.0032827542 -0.00062728091 0.00062846276 0.0008172387 0.0049196687 0.0041564559 -0.0048642312 0.0010138225 -0.0031707752 -0.001304496 0.00095268019 0.0014031722 -0.00026318186 -0.001507245 0.00139624 -0.00088495703 -0.0035330527 0.0030983817 0.00010640416 6.3995401e-05 -0.0049336082 0.00034068094 -0.0018849076 0.0015566807 0.00086520595 -0.0021790594 -0.0025734373 0.0027475643 0.004594353
多一些 -0.0047340682 -0.0018624956 -0.004647335 -0.0036463416 -0.0047798138 -0.003557167 -0.0039603603 0.0039270888 0.0028061282 0.004657316 0.00094200554 0.0026426902 0.00055256026 -0.002168789 -0.0021135758 0.0037221159 0.00072984386 0.0023592548 0.0018846302 0.0043237531 -0.0035715345 -0.0034206607 0.004086385 0.0041340371 0.0022994773 -0.0021924619 0.0047376789 0.0021919345 -0.0049306061 0.0047627296 0.00086362311 0.0025044344 -0.0029998792 -0.0023051095 0.0042542499 -0.0023014625 -0.0045091333 0.0032332786 -0.00083155651 0.0037911127 -0.003604942 0.0033393037 0.0016928099 -0.0042708092 -0.0035747006 -0.00052585237 -0.0040945546 0.0044943034 -0.0031708556 -0.0044516269 -0.00022869378 0.002781837 -0.0041150823 -0.0041719507 -0.0025549312 0.0036768494 -0.0043025403 -0.0031773658 0.0045003043 0.0037143417 -0.0016070378 -0.00054634851 6.848605e-05 0.00080650806 0.0020663952 0.0024823721 0.0020189632 0.0047504883 -0.00043758631 -0.0033288761 0.0028076787 0.0039290208 0.0001244684 -0.0042165108 0.00063032471 0.0024782266 -0.0030980699 0.0016340285 0.0021067483 0.0042977026 -0.0016834367 0.0012190561 -0.0036192788 0.0040798318 0.0042208927 0.00056868582 0.0044511775 -0.0033831033 0.0042922436 -0.00069257728 -0.0028824038 -0.0046979818 -0.0040560002 0.0002417127 0.0049837842 -0.001229438 0.0023284822 -0.0039802347 0.0042192149 -0.0032679881
